{"learner":{"attributes":{"scikit_learn":"{\"_estimator_type\": \"classifier\"}"},"feature_names":["signal_strength_percent","channel_congestion_percent","gateway_ping_ms","gateway_packet_loss_percent","crc_error_rate"],"feature_types":["float","float","float","float","float"],"gradient_booster":{"model":{"gbtree_model_param":{"num_parallel_tree":"1","num_trees":"600"},"iteration_indptr":[0,6,12,18,24,30,36,42,48,54,60,66,72,78,84,90,96,102,108,114,120,126,132,138,144,150,156,162,168,174,180,186,192,198,204,210,216,222,228,234,240,246,252,258,264,270,276,282,288,294,300,306,312,318,324,330,336,342,348,354,360,366,372,378,384,390,396,402,408,414,420,426,432,438,444,450,456,462,468,474,480,486,492,498,504,510,516,522,528,534,540,546,552,558,564,570,576,582,588,594,600],"tree_info":[0,1,2,3,4,5,0,1,2,3,4,5,0,1,2,3,4,5,0,1,2,3,4,5,0,1,2,3,4,5,0,1,2,3,4,5,0,1,2,3,4,5,0,1,2,3,4,5,0,1,2,3,4,5,0,1,2,3,4,5,0,1,2,3,4,5,0,1,2,3,4,5,0,1,2,3,4,5,0,1,2,3,4,5,0,1,2,3,4,5,0,1,2,3,4,5,0,1,2,3,4,5,0,1,2,3,4,5,0,1,2,3,4,5,0,1,2,3,4,5,0,1,2,3,4,5,0,1,2,3,4,5,0,1,2,3,4,5,0,1,2,3,4,5,0,1,2,3,4,5,0,1,2,3,4,5,0,1,2,3,4,5,0,1,2,3,4,5,0,1,2,3,4,5,0,1,2,3,4,5,0,1,2,3,4,5,0,1,2,3,4,5,0,1,2,3,4,5,0,1,2,3,4,5,0,1,2,3,4,5,0,1,2,3,4,5,0,1,2,3,4,5,0,1,2,3,4,5,0,1,2,3,4,5,0,1,2,3,4,5,0,1,2,3,4,5,0,1,2,3,4,5,0,1,2,3,4,5,0,1,2,3,4,5,0,1,2,3,4,5,0,1,2,3,4,5,0,1,2,3,4,5,0,1,2,3,4,5,0,1,2,3,4,5,0,1,2,3,4,5,0,1,2,3,4,5,0,1,2,3,4,5,0,1,2,3,4,5,0,1,2,3,4,5,0,1,2,3,4,5,0,1,2,3,4,5,0,1,2,3,4,5,0,1,2,3,4,5,0,1,2,3,4,5,0,1,2,3,4,5,0,1,2,3,4,5,0,1,2,3,4,5,0,1,2,3,4,5,0,1,2,3,4,5,0,1,2,3,4,5,0,1,2,3,4,5,0,1,2,3,4,5,0,1,2,3,4,5,0,1,2,3,4,5,0,1,2,3,4,5,0,1,2,3,4,5,0,1,2,3,4,5,0,1,2,3,4,5,0,1,2,3,4,5,0,1,2,3,4,5,0,1,2,3,4,5,0,1,2,3,4,5,0,1,2,3,4,5,0,1,2,3,4,5,0,1,2,3,4,5,0,1,2,3,4,5,0,1,2,3,4,5,0,1,2,3,4,5,0,1,2,3,4,5,0,1,2,3,4,5,0,1,2,3,4,5,0,1,2,3,4,5,0,1,2,3,4,5,0,1,2,3,4,5,0,1,2,3,4,5,0,1,2,3,4,5,0,1,2,3,4,5,0,1,2,3,4,5,0,1,2,3,4,5,0,1,2,3,4,5,0,1,2,3,4,5,0,1,2,3,4,5,0,1,2,3,4,5,0,1,2,3,4,5,0,1,2,3,4,5],"trees":[{"base_weights":[-5.263158E-1,-5.988869E-1,2.5364804E0,1.5789472E-1,2.7464788E0],"categories":[],"categories_nodes":[],"categories_segments":[],"categories_sizes":[],"default_left":[1,0,1,0,0],"id":0,"left_children":[1,-1,3,-1,-1],"loss_changes":[1.2399017E2,0E0,6.0320816E0,0E0,0E0],"parents":[2147483647,0,0,2,2],"right_children":[2,-1,4,-1,-1],"split_conditions":[2.7074904E0,-5.988869E-2,3.7914556E-2,1.5789472E-2,2.746479E-1],"split_indices":[1,0,3,0,0],"split_type":[0,0,0,0,0],"sum_hessian":[5.5E2,5.380556E2,1.1944445E1,1.1111112E0,1.0833334E1],"tree_param":{"num_deleted":"0","num_feature":"5","num_nodes":"5","size_leaf_vector":"1"}},{"base_weights":[-5.263158E-1,-5.9888864E-1,2.7522933E0],"categories":[],"categories_nodes":[],"categories_segments":[],"categories_sizes":[],"default_left":[1,0,0],"id":1,"left_children":[1,-1,-1],"loss_changes":[1.327522E2,0E0,0E0],"parents":[2147483647,0,0],"right_children":[2,-1,-1],"split_conditions":[3.1695018E0,-5.9888866E-2,2.7522933E-1],"split_indices":[4,0,0],"split_type":[0,0,0],"sum_hessian":[5.5E2,5.388889E2,1.1111112E1],"tree_param":{"num_deleted":"0","num_feature":"5","num_nodes":"3","size_leaf_vector":"1"}},{"base_weights":[-5.662432E-1,-5.9340996E-1,2.1262136E0,9.677417E-2,-5.988932E-1,6.2264144E-1,-4.1379312E-1],"categories":[],"categories_nodes":[],"categories_segments":[],"categories_sizes":[],"default_left":[1,1,0,1,0,0,0],"id":2,"left_children":[1,3,-1,5,-1,-1,-1],"loss_changes":[4.1564743E1,2.125351E0,0E0,1.6448464E0,0E0,0E0,0E0],"parents":[2147483647,0,0,1,1,3,3],"right_children":[2,4,-1,6,-1,-1,-1],"split_conditions":[5.6568794E0,3.5660662E-4,2.1262136E-1,0E0,-5.9889324E-2,6.2264144E-2,-4.1379314E-2],"split_indices":[3,2,0,0,0,0,0],"split_type":[0,0,0,0,0,0,0],"sum_hessian":[5.5E2,5.4527783E2,4.7222223E0,4.166667E0,5.4111115E2,1.9444445E0,2.2222223E0],"tree_param":{"num_deleted":"0","num_feature":"5","num_nodes":"7","size_leaf_vector":"1"}},{"base_weights":[-4.5916516E-1,-5.9508044E-1,2.617021E0,-5.9696615E-1,1.5789472E-1,9.6226406E-1,2.7216494E0],"categories":[],"categories_nodes":[],"categories_segments":[],"categories_sizes":[],"default_left":[1,1,1,0,0,0,0],"id":3,"left_children":[1,3,5,-1,-1,-1,-1],"loss_changes":[2.3193082E2,8.446808E-1,1.4496918E0,0E0,0E0,0E0,0E0],"parents":[2147483647,0,0,1,1,2,2],"right_children":[2,4,6,-1,-1,-1,-1],"split_conditions":[5.664133E0,5.4042177E0,6.292618E0,-5.9696615E-2,1.5789472E-2,9.622641E-2,2.7216494E-1],"split_indices":[2,2,2,0,0,0,0],"split_type":[0,0,0,0,0,0,0],"sum_hessian":[5.5E2,5.275E2,2.2500002E1,5.263889E2,1.1111112E0,1.9444445E0,2.0555557E1],"tree_param":{"num_deleted":"0","num_feature":"5","num_nodes":"7","size_leaf_vector":"1"}},{"base_weights":[2.6043556E0,2.8378377E0,-4.3568465E-1,2.983651E0,-3.1914893E-1,3.658536E-1,-5.8252424E-1,-5.64935E-1,2.9323304E-1,1.5789473E0,-1.4563107E-1,1.1470587E0,-4.698795E-1,-4.2857143E-1,2.0689653E-1,1.4999999E0,1.5789472E-1],"categories":[],"categories_nodes":[],"categories_segments":[],"categories_sizes":[],"default_left":[1,1,1,0,1,1,0,0,1,0,1,1,0,0,0,0,0],"id":4,"left_children":[1,3,5,-1,7,9,-1,-1,11,-1,13,15,-1,-1,-1,-1,-1],"loss_changes":[3.9233374E2,2.3656494E2,4.940637E0,0E0,3.7027602E0,4.469883E0,0E0,0E0,5.3533216E0,0E0,6.5942895E-1,1.0820432E0,0E0,0E0,0E0,0E0,0E0],"parents":[2147483647,0,0,1,1,2,2,4,4,5,5,8,8,10,10,11,11],"right_children":[2,4,6,-1,8,10,-1,-1,12,-1,14,16,-1,-1,-1,-1,-1],"split_conditions":[3.2848208E-3,5.664133E0,3.31464E-2,2.983651E-1,7.161773E-1,5.0666666E0,-5.8252424E-2,-5.6493502E-2,1.1456141E0,1.5789473E-1,2.101126E-1,9.011768E0,-4.698795E-2,-4.2857144E-2,2.0689653E-2,1.4999999E-1,1.5789472E-2],"split_indices":[3,2,4,0,1,3,0,0,1,0,2,2,0,0,0,0,0],"split_type":[0,0,0,0,0,0,0,0,0,0,0,0,0,0,0,0,0],"sum_hessian":[5.5E2,5.1083334E2,3.9166668E1,4.8833334E2,2.2500002E1,5.8333335E0,3.3333336E1,1.6111113E1,6.3888893E0,1.1111112E0,4.7222223E0,2.777778E0,3.6111112E0,2.5E0,2.2222223E0,1.6666667E0,1.1111112E0],"tree_param":{"num_deleted":"0","num_feature":"5","num_nodes":"17","size_leaf_vector":"1"}},{"base_weights":[-5.263158E-1,-5.9888864E-1,2.7522933E0],"categories":[],"categories_nodes":[],"categories_segments":[],"categories_sizes":[],"default_left":[1,0,0],"id":5,"left_children":[1,-1,-1],"loss_changes":[1.327522E2,0E0,0E0],"parents":[2147483647,0,0],"right_children":[2,-1,-1],"split_conditions":[1.5203362E0,-5.9888866E-2,2.7522933E-1],"split_indices":[0,0,0],"split_type":[0,0,0],"sum_hessian":[5.5E2,5.388889E2,1.1111112E1],"tree_param":{"num_deleted":"0","num_feature":"5","num_nodes":"3","size_leaf_vector":"1"}},{"base_weights":[-5.159272E-1,-5.9095293E-1,1.9960551E0,1.3074966E-1,2.1401088E0],"categories":[],"categories_nodes":[],"categories_segments":[],"categories_sizes":[],"default_left":[1,0,1,0,0],"id":6,"left_children":[1,-1,3,-1,-1],"loss_changes":[9.9999344E1,0E0,3.867607E0,0E0,0E0],"parents":[2147483647,0,0,2,2],"right_children":[2,-1,4,-1,-1],"split_conditions":[2.7074904E0,-5.9095293E-2,1.3246492E-1,1.3074966E-2,2.1401088E-1],"split_indices":[1,0,4,0,0],"split_type":[0,0,0,0,0],"sum_hessian":[5.233448E2,5.0890985E2,1.4434937E1,1.1716225E0,1.3263314E1],"tree_param":{"num_deleted":"0","num_feature":"5","num_nodes":"5","size_leaf_vector":"1"}},{"base_weights":[-5.1594424E-1,-5.909562E-1,2.1326492E0],"categories":[],"categories_nodes":[],"categories_segments":[],"categories_sizes":[],"default_left":[1,0,0],"id":7,"left_children":[1,-1,-1],"loss_changes":[1.0543852E2,0E0,0E0],"parents":[2147483647,0,0],"right_children":[2,-1,-1],"split_conditions":[3.1695018E0,-5.909562E-2,2.1326493E-1],"split_indices":[4,0,0],"split_type":[0,0,0],"sum_hessian":[5.233615E2,5.0970288E2,1.3658647E1],"tree_param":{"num_deleted":"0","num_feature":"5","num_nodes":"3","size_leaf_vector":"1"}},{"base_weights":[-5.570027E-1,-5.8523107E-1,1.7490629E0,1.00264974E-1,-5.9096533E-1,5.9001434E-1,-4.0395182E-1],"categories":[],"categories_nodes":[],"categories_segments":[],"categories_sizes":[],"default_left":[1,1,0,1,0,0,0],"id":8,"left_children":[1,3,-1,5,-1,-1,-1],"loss_changes":[3.503871E1,2.0913696E0,0E0,1.5084889E0,0E0,0E0,0E0],"parents":[2147483647,0,0,1,1,3,3],"right_children":[2,4,-1,6,-1,-1,-1],"split_conditions":[5.6568794E0,3.5660662E-4,1.749063E-1,0E0,-5.9096534E-2,5.9001435E-2,-4.039518E-2],"split_indices":[3,2,0,0,0,0,0],"split_type":[0,0,0,0,0,0,0],"sum_hessian":[5.2153534E2,5.159657E2,5.569659E0,4.143566E0,5.118221E2,2.0156202E0,2.1279461E0],"tree_param":{"num_deleted":"0","num_feature":"5","num_nodes":"7","size_leaf_vector":"1"}},{"base_weights":[-4.4732606E-1,-5.8696085E-1,2.035814E0,-5.8893776E-1,1.6011767E-1,8.634715E-1,2.09787E0,-5.909287E-1,-3.5722455E-1,1.8427595E-1,-4.8872083E-1],"categories":[],"categories_nodes":[],"categories_segments":[],"categories_sizes":[],"default_left":[1,1,1,1,0,0,0,0,1,0,0],"id":9,"left_children":[1,3,5,7,-1,-1,-1,-1,9,-1,-1],"loss_changes":[1.840398E2,8.3280945E-1,2.4732208E-1,1.9073486E-2,0E0,0E0,0E0,0E0,5.7275057E-1,0E0,0E0],"parents":[2147483647,0,0,1,1,2,2,3,3,8,8],"right_children":[2,4,6,8,-1,-1,-1,-1,10,-1,-1],"split_conditions":[5.664133E0,5.4042177E0,6.292618E0,3.923633E0,1.6011767E-2,8.6347155E-2,2.0978701E-1,-5.9092868E-2,7.1305937E-1,1.8427595E-2,-4.8872083E-2],"split_indices":[2,2,2,2,0,0,0,0,1,0,0],"split_type":[0,0,0,0,0,0,0,0,0,0,0],"sum_hessian":[5.2633655E2,4.990377E2,2.7298838E1,4.9793173E2,1.1059487E0,2.122156E0,2.5176682E1,4.9215286E2,5.7788634E0,1.0507025E0,4.728161E0],"tree_param":{"num_deleted":"0","num_feature":"5","num_nodes":"11","size_leaf_vector":"1"}},{"base_weights":[2.0020232E0,2.1473927E0,-4.23854E-1,2.2356331E0,-3.0622137E-1,3.4784487E-1,-5.746968E-1,1.2392912E0,2.2403796E0,-5.567233E-1,2.849122E-1,1.4221524E0,-1.4113835E-1,5.4001547E-2,1.6547401E0,1.0616821E0,-4.625325E-1,-4.2191014E-1,1.9822578E-1,1.3593855E0,1.5793908E-1],"categories":[],"categories_nodes":[],"categories_segments":[],"categories_sizes":[],"default_left":[1,1,1,1,1,1,0,1,0,0,1,0,1,0,0,1,0,0,0,0,0],"id":10,"left_children":[1,3,5,7,9,11,-1,13,-1,-1,15,-1,17,-1,-1,19,-1,-1,-1,-1,-1],"loss_changes":[2.3669067E2,1.3729321E2,4.697275E0,1.0449219E-1,3.532383E0,3.8465097E0,0E0,2.434948E0,0E0,0E0,4.812214E0,0E0,6.247555E-1,0E0,0E0,8.488946E-1,0E0,0E0,0E0,0E0,0E0],"parents":[2147483647,0,0,1,1,2,2,3,3,4,4,5,5,7,7,10,10,12,12,15,15],"right_children":[2,4,6,8,10,12,-1,14,-1,-1,16,-1,18,-1,-1,20,-1,-1,-1,-1,-1],"split_conditions":[3.2848208E-3,5.664133E0,3.31464E-2,3.5660662E-4,7.161773E-1,5.0666666E0,-5.7469677E-2,0E0,2.2403796E-1,-5.567233E-2,1.1456141E0,1.4221524E-1,2.101126E-1,5.4001547E-3,1.6547401E-1,9.011768E0,-4.625325E-2,-4.2191014E-2,1.9822579E-2,1.3593856E-1,1.5793908E-2],"split_indices":[3,2,4,2,1,3,0,0,0,0,1,0,2,0,0,2,0,0,0,0,0],"split_type":[0,0,0,0,0,0,0,0,0,0,0,0,0,0,0,0,0,0,0,0,0],"sum_hessian":[6.6759924E2,6.299638E2,3.763547E1,6.081804E2,2.1783382E1,5.940151E0,3.1695322E1,4.1262503E0,6.0405414E2,1.5340725E1,6.4426575E0,1.2610995E0,4.679052E0,1.3641808E0,2.7620692E0,2.9531882E0,3.489469E0,2.4274619E0,2.25159E0,1.8421803E0,1.111008E0],"tree_param":{"num_deleted":"0","num_feature":"5","num_nodes":"21","size_leaf_vector":"1"}},{"base_weights":[-5.1594424E-1,-5.909562E-1,2.1326492E0],"categories":[],"categories_nodes":[],"categories_segments":[],"categories_sizes":[],"default_left":[1,0,0],"id":11,"left_children":[1,-1,-1],"loss_changes":[1.0543852E2,0E0,0E0],"parents":[2147483647,0,0],"right_children":[2,-1,-1],"split_conditions":[1.5203362E0,-5.909562E-2,2.1326493E-1],"split_indices":[0,0,0],"split_type":[0,0,0],"sum_hessian":[5.233615E2,5.0970288E2,1.3658647E1],"tree_param":{"num_deleted":"0","num_feature":"5","num_nodes":"3","size_leaf_vector":"1"}},{"base_weights":[-5.064186E-1,-5.836419E-1,1.653517E0,1.2624194E-1,1.7565567E0],"categories":[],"categories_nodes":[],"categories_segments":[],"categories_sizes":[],"default_left":[1,0,1,0,0],"id":12,"left_children":[1,-1,3,-1,-1],"loss_changes":[8.402321E1,0E0,2.5242996E0,0E0,0E0],"parents":[2147483647,0,0,2,2],"right_children":[2,-1,4,-1,-1],"split_conditions":[2.7074904E0,-5.836419E-2,1.3246492E-1,1.2624194E-2,1.7565568E-1],"split_indices":[1,0,4,0,0],"split_type":[0,0,0,0,0],"sum_hessian":[4.9695862E2,4.8050897E2,1.6449652E1,1.180293E0,1.526936E1],"tree_param":{"num_deleted":"0","num_feature":"5","num_nodes":"5","size_leaf_vector":"1"}},{"base_weights":[-5.0646985E-1,-5.8364695E-1,1.7512717E0],"categories":[],"categories_nodes":[],"categories_segments":[],"categories_sizes":[],"default_left":[1,0,0],"id":13,"left_children":[1,-1,-1],"loss_changes":[8.779185E1,0E0,0E0],"parents":[2147483647,0,0],"right_children":[2,-1,-1],"split_conditions":[3.1695018E0,-5.8364697E-2,1.7512718E-1],"split_indices":[4,0,0],"split_type":[0,0,0],"sum_hessian":[4.9697293E2,4.8126324E2,1.5709676E1],"tree_param":{"num_deleted":"0","num_feature":"5","num_nodes":"3","size_leaf_vector":"1"}},{"base_weights":[-5.484225E-1,-5.7766086E-1,1.4833552E0,9.1363125E-2,-5.8364105E-1,5.4008263E-1,-3.970608E-1],"categories":[],"categories_nodes":[],"categories_segments":[],"categories_sizes":[],"default_left":[1,1,0,1,0,0,0],"id":14,"left_children":[1,3,-1,5,-1,-1,-1],"loss_changes":[3.0244736E1,2.0073395E0,0E0,1.3522644E0,0E0,0E0,0E0],"parents":[2147483647,0,0,1,1,3,3],"right_children":[2,4,-1,6,-1,-1,-1],"split_conditions":[5.6568794E0,3.5660662E-4,1.4833552E-1,0E0,-5.8364104E-2,5.4008264E-2,-3.970608E-2],"split_indices":[3,2,0,0,0,0,0],"split_type":[0,0,0,0,0,0,0],"sum_hessian":[4.936964E2,4.8739816E2,6.298235E0,4.1915994E0,4.8320657E2,2.12947E0,2.0621295E0],"tree_param":{"num_deleted":"0","num_feature":"5","num_nodes":"7","size_leaf_vector":"1"}},{"base_weights":[-4.3654582E-1,-5.7944965E-1,1.6754557E0,-5.815272E-1,1.6254242E-1,-5.8361214E-1,-3.44211E-1,2.0211577E-1,-4.806056E-1],"categories":[],"categories_nodes":[],"categories_segments":[],"categories_sizes":[],"default_left":[1,1,0,1,0,0,1,0,0],"id":15,"left_children":[1,3,-1,5,-1,-1,7,-1,-1],"loss_changes":[1.5293164E2,8.226166E-1,0E0,3.2287598E-2,0E0,0E0,5.846021E-1,0E0,0E0],"parents":[2147483647,0,0,1,1,3,3,6,6],"right_children":[2,4,-1,6,-1,-1,8,-1,-1],"split_conditions":[5.664133E0,5.4042177E0,1.6754557E-1,3.923633E0,1.6254243E-2,-5.8361214E-2,4.0677023E0,2.0211577E-2,-4.8060562E-2],"split_indices":[2,2,0,2,0,0,2,0,0],"split_type":[0,0,0,0,0,0,0,0,0],"sum_hessian":[5.0249292E2,4.7132727E2,3.1165668E1,4.7022693E2,1.1003323E0,4.6468518E2,5.541737E0,1.0108688E0,4.5308685E0],"tree_param":{"num_deleted":"0","num_feature":"5","num_nodes":"9","size_leaf_vector":"1"}},{"base_weights":[1.6433994E0,1.7465672E0,-4.1218537E-1,1.8051825E0,-4.0966326E-1,3.3172068E-1,-5.671919E-1,1.8094879E0,7.746871E-1,-5.487964E-1,6.987216E-2,1.2896001E0,-1.3580596E-1,1.1860116E0,-3.0938366E-1,1.0234283E0,-4.5158994E-1,-4.1495436E-1,1.9134434E-1],"categories":[],"categories_nodes":[],"categories_segments":[],"categories_sizes":[],"default_left":[1,1,1,1,1,1,0,0,1,0,1,0,1,0,0,0,0,0,0],"id":16,"left_children":[1,3,5,7,9,11,-1,-1,13,-1,15,-1,17,-1,-1,-1,-1,-1,-1],"loss_changes":[1.6172656E2,9.21333E1,4.4652753E0,1.7226562E0,1.3695462E0,3.3221083E0,0E0,0E0,2.4530697E0,0E0,3.1344304E0,0E0,5.932732E-1,0E0,0E0,0E0,0E0,0E0,0E0],"parents":[2147483647,0,0,1,1,2,2,3,3,4,4,5,5,8,8,10,10,12,12],"right_children":[2,4,6,8,10,12,-1,-1,14,-1,16,-1,18,-1,-1,-1,-1,-1,-1],"split_conditions":[3.2848208E-3,6.292618E0,3.31464E-2,5.4042177E0,7.161773E-1,5.0666666E0,-5.671919E-2,1.809488E-1,1.1562469E0,-5.4879643E-2,8.273752E-1,1.2896001E-1,2.101126E-1,1.1860116E-1,-3.0938366E-2,1.0234284E-1,-4.5158993E-2,-4.149544E-2,1.9134434E-2],"split_indices":[3,2,4,2,1,3,0,0,1,0,1,0,2,0,0,0,0,0,0],"split_type":[0,0,0,0,0,0,0,0,0,0,0,0,0,0,0,0,0,0,0],"sum_hessian":[7.582144E2,7.2212213E2,3.609231E1,7.0316986E2,1.8952267E1,6.0270944E0,3.0065218E1,6.994914E2,3.678435E0,1.4578115E1,4.3741503E0,1.4001298E0,4.6269646E0,2.5984724E0,1.0799626E0,1.2060783E0,3.168072E0,2.3518255E0,2.275139E0],"tree_param":{"num_deleted":"0","num_feature":"5","num_nodes":"19","size_leaf_vector":"1"}},{"base_weights":[-5.0646985E-1,-5.8364695E-1,1.7512717E0],"categories":[],"categories_nodes":[],"categories_segments":[],"categories_sizes":[],"default_left":[1,0,0],"id":17,"left_children":[1,-1,-1],"loss_changes":[8.779185E1,0E0,0E0],"parents":[2147483647,0,0],"right_children":[2,-1,-1],"split_conditions":[1.5203362E0,-5.8364697E-2,1.7512718E-1],"split_indices":[0,0,0],"split_type":[0,0,0],"sum_hessian":[4.9697293E2,4.8126324E2,1.5709676E1],"tree_param":{"num_deleted":"0","num_feature":"5","num_nodes":"3","size_leaf_vector":"1"}},{"base_weights":[-4.9760562E-1,-5.7682407E-1,1.4175704E0,1.1188545E-1,1.499777E0],"categories":[],"categories_nodes":[],"categories_segments":[],"categories_sizes":[],"default_left":[1,0,1,0,0],"id":18,"left_children":[1,-1,3,-1,-1],"loss_changes":[7.237567E1,0E0,1.8741074E0,0E0,0E0],"parents":[2147483647,0,0,2,2],"right_children":[2,-1,4,-1,-1],"split_conditions":[2.7074904E0,-5.7682406E-2,3.7914556E-2,1.1188545E-2,1.499777E-1],"split_indices":[1,0,3,0,0],"split_type":[0,0,0,0,0],"sum_hessian":[4.706535E2,4.5262994E2,1.8023558E1,1.2074065E0,1.6816153E1],"tree_param":{"num_deleted":"0","num_feature":"5","num_nodes":"5","size_leaf_vector":"1"}},{"base_weights":[-4.977043E-1,-5.768312E-1,1.4930725E0],"categories":[],"categories_nodes":[],"categories_segments":[],"categories_sizes":[],"default_left":[1,0,0],"id":19,"left_children":[1,-1,-1],"loss_changes":[7.5158455E1,0E0,0E0],"parents":[2147483647,0,0],"right_children":[2,-1,-1],"split_conditions":[3.1695018E0,-5.768312E-2,1.4930725E-1],"split_indices":[4,0,0],"split_type":[0,0,0],"sum_hessian":[4.706561E2,4.5334726E2,1.7308842E1],"tree_param":{"num_deleted":"0","num_feature":"5","num_nodes":"3","size_leaf_vector":"1"}},{"base_weights":[-5.403322E-1,-5.7054913E-1,1.2868259E0,9.3873255E-2,-5.768251E-1,5.1322097E-1,-3.878359E-1],"categories":[],"categories_nodes":[],"categories_segments":[],"categories_sizes":[],"default_left":[1,1,0,1,0,0,0],"id":20,"left_children":[1,3,-1,5,-1,-1,-1],"loss_changes":[2.653154E1,1.9737091E0,0E0,1.2429223E0,0E0,0E0,0E0],"parents":[2147483647,0,0,1,1,3,3],"right_children":[2,4,-1,6,-1,-1,-1],"split_conditions":[5.6568794E0,3.5660662E-4,1.286826E-1,0E0,-5.768251E-2,5.13221E-2,-3.878359E-2],"split_indices":[3,2,0,0,0,0,0],"split_type":[0,0,0,0,0,0,0],"sum_hessian":[4.6624915E2,4.5934045E2,6.9086814E0,4.1676145E0,4.5517285E2,2.1930537E0,1.9745606E0],"tree_param":{"num_deleted":"0","num_feature":"5","num_nodes":"7","size_leaf_vector":"1"}},{"base_weights":[-4.266072E-1,-5.724099E-1,1.4248166E0,-5.745932E-1,1.5802778E-1,6.5152323E-1,1.4652839E0,-5.7678616E-1,-3.309826E-1,-3.312092E-1,1.1961907E0,2.0392597E-1,-4.710559E-1],"categories":[],"categories_nodes":[],"categories_segments":[],"categories_sizes":[],"default_left":[1,1,1,1,0,1,0,0,1,0,0,0,0],"id":21,"left_children":[1,3,5,7,-1,9,-1,-1,11,-1,-1,-1,-1],"loss_changes":[1.302287E2,8.006592E-1,1.4949799E-1,4.6295166E-2,0E0,2.299207E0,0E0,0E0,5.686818E-1,0E0,0E0,0E0,0E0],"parents":[2147483647,0,0,1,1,2,2,3,3,5,5,8,8],"right_children":[2,4,6,8,-1,10,-1,-1,12,-1,-1,-1,-1],"split_conditions":[5.664133E0,5.4042177E0,6.292618E0,3.923633E0,1.5802778E-2,1.1562469E0,1.465284E-1,-5.7678618E-2,7.1305937E-1,-3.3120923E-2,1.1961907E-1,2.0392597E-2,-4.710559E-2],"split_indices":[2,2,2,2,0,1,0,0,1,0,0,0,0],"split_type":[0,0,0,0,0,0,0,0,0,0,0,0,0],"sum_hessian":[4.7840967E2,4.441249E2,3.4284756E1,4.430141E2,1.1108017E0,2.5552986E0,3.1729458E1,4.377063E2,5.307806E0,1.0509666E0,1.504332E0,1.0068853E0,4.300921E0],"tree_param":{"num_deleted":"0","num_feature":"5","num_nodes":"13","size_leaf_vector":"1"}},{"base_weights":[1.4035629E0,1.4826764E0,-4.006348E-1,1.5272182E0,-3.9755225E-1,3.17356E-1,-5.5998147E-1,1.5303303E0,7.1454287E-1,-5.4125243E-1,7.971937E-2,1.1772928E0,-1.2975718E-1,1.0796367E0,-3.0418906E-1,9.715951E-1,-4.4236505E-1,-4.0776625E-1,1.8599145E-1],"categories":[],"categories_nodes":[],"categories_segments":[],"categories_sizes":[],"default_left":[1,1,1,1,1,1,0,0,1,0,1,0,1,0,0,0,0,0,0],"id":22,"left_children":[1,3,5,7,9,11,-1,-1,13,-1,15,-1,17,-1,-1,-1,-1,-1,-1],"loss_changes":[1.18680786E2,6.700049E1,4.243876E0,8.6572266E-1,1.3557906E0,2.8800664E0,0E0,0E0,2.1251886E0,0E0,2.8979676E0,0E0,5.645683E-1,0E0,0E0,0E0,0E0,0E0,0E0],"parents":[2147483647,0,0,1,1,2,2,3,3,4,4,5,5,8,8,10,10,12,12],"right_children":[2,4,6,8,10,12,-1,-1,14,-1,16,-1,18,-1,-1,-1,-1,-1,-1],"split_conditions":[3.2848208E-3,6.292618E0,3.31464E-2,5.4042177E0,7.161773E-1,5.0666666E0,-5.5998147E-2,1.5303303E-1,1.1562469E0,-5.4125246E-2,8.273752E-1,1.17729284E-1,2.101126E-1,1.07963674E-1,-3.0418906E-2,9.715951E-2,-4.4236507E-2,-4.0776625E-2,1.8599145E-2],"split_indices":[3,2,4,2,1,3,0,0,1,0,1,0,2,0,0,0,0,0,0],"split_type":[0,0,0,0,0,0,0,0,0,0,0,0,0,0,0,0,0,0,0],"sum_hessian":[8.263068E2,7.9176636E2,3.454045E1,7.736272E2,1.813919E1,6.0933185E0,2.8447134E1,7.6979626E2,3.830913E0,1.3838535E1,4.300656E0,1.5257435E0,4.567575E0,2.7761939E0,1.0547192E0,1.2700462E0,3.0306096E0,2.273971E0,2.2936037E0],"tree_param":{"num_deleted":"0","num_feature":"5","num_nodes":"19","size_leaf_vector":"1"}},{"base_weights":[-4.977043E-1,-5.768312E-1,1.4930725E0],"categories":[],"categories_nodes":[],"categories_segments":[],"categories_sizes":[],"default_left":[1,0,0],"id":23,"left_children":[1,-1,-1],"loss_changes":[7.5158455E1,0E0,0E0],"parents":[2147483647,0,0],"right_children":[2,-1,-1],"split_conditions":[1.5203362E0,-5.768312E-2,1.4930725E-1],"split_indices":[0,0,0],"split_type":[0,0,0],"sum_hessian":[4.706561E2,4.5334726E2,1.7308842E1],"tree_param":{"num_deleted":"0","num_feature":"5","num_nodes":"3","size_leaf_vector":"1"}},{"base_weights":[-4.894245E-1,-5.704607E-1,1.2454599E0,1.04849935E-1,1.3131284E0],"categories":[],"categories_nodes":[],"categories_segments":[],"categories_sizes":[],"default_left":[1,0,1,0,0],"id":24,"left_children":[1,-1,3,-1,-1],"loss_changes":[6.3347427E1,0E0,1.421135E0,0E0,0E0],"parents":[2147483647,0,0,2,2],"right_children":[2,-1,4,-1,-1],"split_conditions":[2.7074904E0,-5.7046067E-2,1.3246492E-1,1.0484993E-2,1.3131283E-1],"split_indices":[1,0,4,0,0],"split_type":[0,0,0,0,0],"sum_hessian":[4.445341E2,4.253378E2,1.9196281E1,1.2178499E0,1.7978432E1],"tree_param":{"num_deleted":"0","num_feature":"5","num_nodes":"5","size_leaf_vector":"1"}},{"base_weights":[-4.895844E-1,-5.7047015E-1,1.3071537E0],"categories":[],"categories_nodes":[],"categories_segments":[],"categories_sizes":[],"default_left":[1,0,0],"id":25,"left_children":[1,-1,-1],"loss_changes":[6.549266E1,0E0,0E0],"parents":[2147483647,0,0],"right_children":[2,-1,-1],"split_conditions":[3.1695018E0,-5.7047017E-2,1.3071537E-1],"split_indices":[4,0,0],"split_type":[0,0,0],"sum_hessian":[4.4451538E2,4.2601932E2,1.8496082E1],"tree_param":{"num_deleted":"0","num_feature":"5","num_nodes":"3","size_leaf_vector":"1"}},{"base_weights":[-5.3268677E-1,-5.6385815E-1,1.135895E0,9.718786E-2,-5.7046294E-1,4.9007064E-1,-3.7856293E-1],"categories":[],"categories_nodes":[],"categories_segments":[],"categories_sizes":[],"default_left":[1,1,0,1,0,0,0],"id":26,"left_children":[1,3,-1,5,-1,-1,-1],"loss_changes":[2.3539726E1,1.9453735E0,0E0,1.1456244E0,0E0,0E0,0E0],"parents":[2147483647,0,0,1,1,3,3],"right_children":[2,4,-1,6,-1,-1,-1],"split_conditions":[5.6568794E0,3.5660662E-4,1.135895E-1,0E0,-5.7046294E-2,4.9007066E-2,-3.7856292E-2],"split_indices":[3,2,0,0,0,0,0],"split_type":[0,0,0,0,0,0,0],"sum_hessian":[4.3926874E2,4.3186304E2,7.405711E0,4.1365886E0,4.2772644E2,2.249125E0,1.8874638E0],"tree_param":{"num_deleted":"0","num_feature":"5","num_nodes":"7","size_leaf_vector":"1"}},{"base_weights":[-4.173375E-1,-5.657948E-1,1.2469263E0,-5.680965E-1,1.5473038E-1,1.3437042E0,8.866548E-1,-5.7041156E-1,-3.175408E-1,-4.1854855E-1,1.1086731E0,2.0602362E-1,-4.615537E-1,5.122901E-1,1.2832805E0,-3.263946E-1,9.382755E-1],"categories":[],"categories_nodes":[],"categories_segments":[],"categories_sizes":[],"default_left":[1,1,1,1,0,0,1,0,1,0,1,0,0,1,0,0,0],"id":27,"left_children":[1,3,5,7,-1,-1,9,-1,11,-1,13,-1,-1,15,-1,-1,-1],"loss_changes":[1.1313744E2,7.819214E-1,1.18881226E-1,6.097412E-2,0E0,0E0,3.6218624E0,0E0,5.532759E-1,0E0,3.409357E-1,0E0,0E0,1.6766167E0,0E0,0E0,0E0],"parents":[2147483647,0,0,1,1,2,2,3,3,6,6,8,8,10,10,13,13],"right_children":[2,4,6,8,-1,-1,10,-1,12,-1,14,-1,-1,16,-1,-1,-1],"split_conditions":[5.664133E0,5.4042177E0,7.161773E-1,3.923633E0,1.5473038E-2,1.3437043E-1,7.6838166E-1,-5.7041157E-2,7.1305937E-1,-4.1854855E-2,1.1456141E0,2.0602362E-2,-4.615537E-2,6.5702534E0,1.2832806E-1,-3.263946E-2,9.382755E-2],"split_indices":[2,2,1,2,0,0,1,0,1,0,1,0,0,2,0,0,0],"split_type":[0,0,0,0,0,0,0,0,0,0,0,0,0,0,0,0,0],"sum_hessian":[4.5405722E2,4.1747705E2,3.658017E1,4.1635855E2,1.1184822E0,2.6682796E1,9.897372E0,4.1128183E2,5.0767183E0,1.3101355E0,8.587237E0,1.0022842E0,4.074434E0,2.8356943E0,5.7515426E0,1.0339102E0,1.8017843E0],"tree_param":{"num_deleted":"0","num_feature":"5","num_nodes":"17","size_leaf_vector":"1"}},{"base_weights":[1.2318993E0,1.2958183E0,-3.891674E-1,1.331541E0,-3.850144E-1,3.0468538E-1,-5.530467E-1,1.3340565E0,6.5089417E-1,-5.337471E-1,9.040891E-2,1.0820546E0,-1.2310143E-1,7.798258E-1,1.3367337E0,9.750229E-1,-2.9989585E-1,1.1613503E0,-4.4642678E-1,-4.0039846E-1,1.8194313E-1,-7.452666E-2,1.1031592E0],"categories":[],"categories_nodes":[],"categories_segments":[],"categories_sizes":[],"default_left":[1,1,1,1,1,1,0,1,1,0,1,0,1,1,0,0,0,0,0,0,0,0,0],"id":28,"left_children":[1,3,5,7,9,11,-1,13,15,-1,17,-1,19,21,-1,-1,-1,-1,-1,-1,-1,-1,-1],"loss_changes":[9.123779E1,5.1110107E1,4.03309E0,5.449219E-1,1.3431375E0,2.5070496E0,0E0,1.7626953E-1,1.8307993E0,0E0,3.518886E0,0E0,5.382822E-1,1.8360035E0,0E0,0E0,0E0,0E0,0E0,0E0,0E0,0E0,0E0],"parents":[2147483647,0,0,1,1,2,2,3,3,4,4,5,5,7,7,8,8,10,10,12,12,13,13],"right_children":[2,4,6,8,10,12,-1,14,16,-1,18,-1,20,22,-1,-1,-1,-1,-1,-1,-1,-1,-1],"split_conditions":[3.2848208E-3,6.292618E0,3.31464E-2,5.4042177E0,7.161773E-1,5.0666666E0,-5.5304673E-2,3.5660662E-4,1.1562469E0,-5.3374708E-2,7.6838166E-1,1.0820546E-1,2.101126E-1,0E0,1.3367337E-1,9.750229E-2,-2.9989585E-2,1.1613502E-1,-4.464268E-2,-4.003985E-2,1.8194314E-2,-7.4526663E-3,1.1031592E-1],"split_indices":[3,2,4,2,1,3,0,2,1,0,1,0,2,0,0,0,0,0,0,0,0,0,0],"split_type":[0,0,0,0,0,0,0,0,0,0,0,0,0,0,0,0,0,0,0,0,0,0,0],"sum_hessian":[8.746624E2,8.4167554E2,3.2986897E1,8.243632E2,1.7312315E1,6.138353E0,2.6848543E1,8.2037134E2,3.9918945E0,1.3093449E1,4.2188663E0,1.6360028E0,4.5023503E0,5.348772E0,8.150226E2,2.9580085E0,1.033886E0,1.020243E0,3.1986232E0,2.1946974E0,2.307653E0,1.6797715E0,3.6690006E0],"tree_param":{"num_deleted":"0","num_feature":"5","num_nodes":"23","size_leaf_vector":"1"}},{"base_weights":[-4.895844E-1,-5.7047015E-1,1.3071537E0],"categories":[],"categories_nodes":[],"categories_segments":[],"categories_sizes":[],"default_left":[1,0,0],"id":29,"left_children":[1,-1,-1],"loss_changes":[6.549266E1,0E0,0E0],"parents":[2147483647,0,0],"right_children":[2,-1,-1],"split_conditions":[1.5203362E0,-5.7047017E-2,1.3071537E-1],"split_indices":[0,0,0],"split_type":[0,0,0],"sum_hessian":[4.4451538E2,4.2601932E2,1.8496082E1],"tree_param":{"num_deleted":"0","num_feature":"5","num_nodes":"3","size_leaf_vector":"1"}},{"base_weights":[-4.8182693E-1,-5.645224E-1,1.1147997E0,9.263858E-2,1.1739359E0],"categories":[],"categories_nodes":[],"categories_segments":[],"categories_sizes":[],"default_left":[1,0,1,0,0],"id":30,"left_children":[1,-1,3,-1,-1],"loss_changes":[5.604815E1,0E0,1.1609421E0,0E0,0E0],"parents":[2147483647,0,0,2,2],"right_children":[2,-1,4,-1,-1],"split_conditions":[2.7074904E0,-5.645224E-2,3.7914556E-2,9.263858E-3,1.1739359E-1],"split_indices":[1,0,3,0,0],"split_type":[0,0,0,0,0],"sum_hessian":[4.187321E2,3.987269E2,2.000518E1,1.2344469E0,1.8770733E1],"tree_param":{"num_deleted":"0","num_feature":"5","num_nodes":"5","size_leaf_vector":"1"}},{"base_weights":[-4.8206112E-1,-5.6453437E-1,1.1673594E0],"categories":[],"categories_nodes":[],"categories_segments":[],"categories_sizes":[],"default_left":[1,0,0],"id":31,"left_children":[1,-1,-1],"loss_changes":[5.7750084E1,0E0,0E0],"parents":[2147483647,0,0],"right_children":[2,-1,-1],"split_conditions":[3.1695018E0,-5.6453437E-2,1.16735935E-1],"split_indices":[4,0,0],"split_type":[0,0,0],"sum_hessian":[4.186854E2,3.993739E2,1.9311493E1],"tree_param":{"num_deleted":"0","num_feature":"5","num_nodes":"3","size_leaf_vector":"1"}},{"base_weights":[-5.254723E-1,-5.5757993E-1,1.0164616E0,9.1046385E-2,-5.6451523E-1,4.5283097E-1,-3.7076607E-1,9.1727924E-1,-3.17122E-1],"categories":[],"categories_nodes":[],"categories_segments":[],"categories_sizes":[],"default_left":[1,1,0,1,0,1,0,0,0],"id":32,"left_children":[1,3,-1,5,-1,7,-1,-1,-1],"loss_changes":[2.1056625E1,1.8780975E0,0E0,1.0295184E0,0E0,1.4859558E0,0E0,0E0,0E0],"parents":[2147483647,0,0,1,1,3,3,5,5],"right_children":[2,4,-1,6,-1,8,-1,-1,-1],"split_conditions":[5.6568794E0,3.5660662E-4,1.0164616E-1,0E0,-5.6451526E-2,4.970278E-2,-3.7076607E-2,9.172793E-2,-3.17122E-2],"split_indices":[3,2,0,0,0,3,0,0,0],"split_type":[0,0,0,0,0,0,0,0,0],"sum_hessian":[4.128707E2,4.0507422E2,7.796464E0,4.1570587E0,4.0091718E2,2.341877E0,1.8151819E0,1.3413863E0,1.0004907E0],"tree_param":{"num_deleted":"0","num_feature":"5","num_nodes":"9","size_leaf_vector":"1"}},{"base_weights":[-4.0867624E-1,-5.6200975E-1,1.090942E0,-5.644627E-1,-3.0381465E-1,1.522851E-1,1.1139977E0,1.6021654E-1,-4.5022532E-1,1.1960212E0,8.0388665E-1,-4.0994772E-1,1.0023215E0,4.739289E-1,1.1517769E0],"categories":[],"categories_nodes":[],"categories_segments":[],"categories_sizes":[],"default_left":[1,1,1,0,1,0,1,0,0,0,1,0,1,0,0],"id":33,"left_children":[1,3,5,-1,7,-1,9,-1,-1,-1,11,-1,13,-1,-1],"loss_changes":[9.9636635E1,7.637024E-2,7.0224E-1,0E0,4.6948475E-1,0E0,3.472519E-2,0E0,0E0,0E0,3.1187367E0,0E0,2.4011707E-1,0E0,0E0],"parents":[2147483647,0,0,1,1,2,2,4,4,6,6,10,10,12,12],"right_children":[2,4,6,-1,8,-1,10,-1,-1,-1,12,-1,14,-1,-1],"split_conditions":[5.4042177E0,3.923633E0,5.664133E0,-5.6446273E-2,4.1092525E0,1.522851E-2,7.161773E-1,1.6021654E-2,-4.5022532E-2,1.1960212E-1,7.6838166E-1,-4.0994775E-2,1.1456141E0,4.739289E-2,1.1517769E-1],"split_indices":[2,2,2,0,2,0,1,0,0,0,1,0,1,0,0],"split_type":[0,0,0,0,0,0,0,0,0,0,0,0,0,0,0],"sum_hessian":[4.2964603E2,3.903578E2,3.9288216E1,3.8550916E2,4.848635E0,1.1241959E0,3.816402E1,1.1402986E0,3.7083366E0,2.7921976E1,1.0242044E1,1.2893192E0,8.952725E0,2.893594E0,6.0591316E0],"tree_param":{"num_deleted":"0","num_feature":"5","num_nodes":"15","size_leaf_vector":"1"}},{"base_weights":[1.1033912E0,1.1570342E0,-3.777609E-1,1.186885E0,-3.7325993E-1,2.9358262E-1,-5.463763E-1,1.1890254E0,5.973773E-1,-5.261467E-1,9.3147196E-2,1.000933E0,-1.1593468E-1,7.107378E-1,1.1912943E0,8.8714105E-1,-2.9412627E-1,1.0671861E0,-4.3770188E-1,-3.9289463E-1,1.7900813E-1,-7.992237E-2,1.0047714E0],"categories":[],"categories_nodes":[],"categories_segments":[],"categories_sizes":[],"default_left":[1,1,1,1,1,1,0,1,1,0,1,0,1,1,0,0,0,0,0,0,0,0,0],"id":34,"left_children":[1,3,5,7,9,11,-1,13,15,-1,17,-1,19,21,-1,-1,-1,-1,-1,-1,-1,-1,-1],"loss_changes":[7.246985E1,4.042102E1,3.832672E0,3.7316895E-1,1.2972865E0,2.1908877E0,0E0,8.0566406E-2,1.5825227E0,0E0,3.140988E0,0E0,5.14106E-1,1.5946E0,0E0,0E0,0E0,0E0,0E0,0E0,0E0,0E0,0E0],"parents":[2147483647,0,0,1,1,2,2,3,3,4,4,5,5,7,7,8,8,10,10,12,12,13,13],"right_children":[2,4,6,8,10,12,-1,14,16,-1,18,-1,20,22,-1,-1,-1,-1,-1,-1,-1,-1,-1],"split_conditions":[3.2848208E-3,6.292618E0,3.31464E-2,5.4042177E0,7.161773E-1,5.0666666E0,-5.463763E-2,3.5660662E-4,1.1562469E0,-5.261467E-2,7.6838166E-1,1.00093305E-1,2.101126E-1,0E0,1.19129434E-1,8.871411E-2,-2.9412627E-2,1.06718615E-1,-4.377019E-2,-3.9289463E-2,1.7900813E-2,-7.992237E-3,1.0047714E-1],"split_indices":[3,2,4,2,1,3,0,2,1,0,1,0,2,0,0,0,0,0,0,0,0,0,0],"split_type":[0,0,0,0,0,0,0,0,0,0,0,0,0,0,0,0,0,0,0,0,0,0,0],"sum_hessian":[9.0560376E2,8.741629E2,3.1440834E1,8.5765735E2,1.6505558E1,6.1627326E0,2.5278101E1,8.535413E2,4.1159935E0,1.2334322E1,4.171236E0,1.730133E0,4.4325995E0,5.513649E0,8.480277E2,3.1100373E0,1.0059562E0,1.1150064E0,3.0562296E0,2.1147153E0,2.3178842E0,1.6920065E0,3.8216426E0],"tree_param":{"num_deleted":"0","num_feature":"5","num_nodes":"23","size_leaf_vector":"1"}},{"base_weights":[-4.8206112E-1,-5.6453437E-1,1.1673594E0],"categories":[],"categories_nodes":[],"categories_segments":[],"categories_sizes":[],"default_left":[1,0,0],"id":35,"left_children":[1,-1,-1],"loss_changes":[5.7750084E1,0E0,0E0],"parents":[2147483647,0,0],"right_children":[2,-1,-1],"split_conditions":[1.5203362E0,-5.6453437E-2,1.16735935E-1],"split_indices":[0,0,0],"split_type":[0,0,0],"sum_hessian":[4.186854E2,3.993739E2,1.9311493E1],"tree_param":{"num_deleted":"0","num_feature":"5","num_nodes":"3","size_leaf_vector":"1"}},{"base_weights":[-4.7476605E-1,-5.589842E-1,1.0124941E0,8.763847E-2,1.0646398E0],"categories":[],"categories_nodes":[],"categories_segments":[],"categories_sizes":[],"default_left":[1,0,1,0,0],"id":36,"left_children":[1,-1,3,-1,-1],"loss_changes":[4.996231E1,0E0,9.431267E-1,0E0,0E0],"parents":[2147483647,0,0,2,2],"right_children":[2,-1,4,-1,-1],"split_conditions":[2.7074904E0,-5.5898424E-2,1.3246492E-1,8.763847E-3,1.0646398E-1],"split_indices":[1,0,4,0,0],"split_type":[0,0,0,0,0],"sum_hessian":[3.9336838E2,3.728778E2,2.0490566E1,1.2367234E0,1.9253843E1],"tree_param":{"num_deleted":"0","num_feature":"5","num_nodes":"5","size_leaf_vector":"1"}},{"base_weights":[-4.750874E-1,-5.589987E-1,1.0588106E0],"categories":[],"categories_nodes":[],"categories_segments":[],"categories_sizes":[],"default_left":[1,0,0],"id":37,"left_children":[1,-1,-1],"loss_changes":[5.134118E1,0E0,0E0],"parents":[2147483647,0,0],"right_children":[2,-1,-1],"split_conditions":[3.1695018E0,-5.589987E-2,1.0588106E-1],"split_indices":[4,0,0],"split_type":[0,0,0],"sum_hessian":[3.9328784E2,3.734917E2,1.9796146E1],"tree_param":{"num_deleted":"0","num_feature":"5","num_nodes":"3","size_leaf_vector":"1"}},{"base_weights":[-5.1863503E-1,-5.516698E-1,9.1960454E-1,8.6820036E-2,-5.5896825E-1,4.2216554E-1,-3.6280426E-1],"categories":[],"categories_nodes":[],"categories_segments":[],"categories_sizes":[],"default_left":[1,1,0,1,0,0,0],"id":38,"left_children":[1,3,-1,5,-1,-1,-1],"loss_changes":[1.8947906E1,1.8194885E0,0E0,9.312738E-1,0E0,0E0,0E0],"parents":[2147483647,0,0,1,1,3,3],"right_children":[2,4,-1,6,-1,-1,-1],"split_conditions":[5.6568794E0,3.5660662E-4,9.196045E-2,0E0,-5.5896826E-2,4.2216554E-2,-3.6280427E-2],"split_indices":[3,2,0,0,0,0,0],"split_type":[0,0,0,0,0,0,0],"sum_hessian":[3.8712527E2,3.7903568E2,8.089606E0,4.1605854E0,3.748751E2,2.41813E0,1.7424554E0],"tree_param":{"num_deleted":"0","num_feature":"5","num_nodes":"7","size_leaf_vector":"1"}},{"base_weights":[-4.0059736E-1,-5.563051E-1,9.894716E-1,-5.589148E-1,-2.8993535E-1,4.4079703E-1,1.0367075E0,1.65026E-1,-4.4060105E-1,-1.1065976E-1,9.0073127E-1,1.5055732E-1,-3.2870448E-1],"categories":[],"categories_nodes":[],"categories_segments":[],"categories_sizes":[],"default_left":[1,1,1,0,1,1,0,0,0,1,0,0,0],"id":39,"left_children":[1,3,5,-1,7,9,-1,-1,-1,11,-1,-1,-1],"loss_changes":[8.851419E1,9.2430115E-2,6.1333084E-1,0E0,4.586215E-1,1.3711934E0,0E0,0E0,0E0,2.3006321E-1,0E0,0E0,0E0],"parents":[2147483647,0,0,1,1,2,2,4,4,5,5,9,9],"right_children":[2,4,6,-1,8,10,-1,-1,-1,12,-1,-1,-1],"split_conditions":[5.4042177E0,3.923633E0,6.292618E0,-5.589148E-2,4.1092525E0,1.1562469E0,1.0367075E-1,1.65026E-2,-4.4060107E-2,9.2609656E-1,9.007313E-2,1.5055733E-2,-3.287045E-2],"split_indices":[2,2,2,0,2,1,0,0,0,1,0,0,0],"split_type":[0,0,0,0,0,0,0,0,0,0,0,0,0],"sum_hessian":[4.0540305E2,3.651057E2,4.029731E1,3.6047586E2,4.629866E0,4.013205E0,3.6284103E1,1.1280899E0,3.501776E0,2.1703625E0,1.8428428E0,1.1282423E0,1.0421201E0],"tree_param":{"num_deleted":"0","num_feature":"5","num_nodes":"13","size_leaf_vector":"1"}},{"base_weights":[1.0038419E0,1.0452309E0,-5.399549E-1,1.0706996E0,-3.620848E-1,1.0766732E0,-1.08344354E-1,-5.1871586E-1,9.3087755E-2,1.0785416E0,5.552672E-1,-3.8529205E-1,1.7701884E-1,9.844116E-1,-4.299353E-1,7.3432785E-1,4.456117E-2],"categories":[],"categories_nodes":[],"categories_segments":[],"categories_sizes":[],"default_left":[1,1,0,1,1,1,1,0,1,0,1,0,0,0,0,0,0],"id":40,"left_children":[1,3,-1,5,7,9,11,-1,13,-1,15,-1,-1,-1,-1,-1,-1],"loss_changes":[5.950415E1,3.2598877E1,0E0,6.335388E0,1.240469E0,2.571411E-1,4.9176902E-1,0E0,2.814258E0,0E0,4.4266343E-1,0E0,0E0,0E0,0E0,0E0,0E0],"parents":[2147483647,0,0,1,1,3,3,4,4,5,5,6,6,8,8,10,10],"right_children":[2,4,-1,6,8,10,12,-1,14,-1,16,-1,-1,-1,-1,-1,-1],"split_conditions":[3.31464E-2,6.292618E0,-5.399549E-2,5.0666666E0,7.161773E-1,5.4042177E0,2.101126E-1,-5.1871587E-2,7.6838166E-1,1.07854165E-1,1.0691683E0,-3.8529206E-2,1.7701885E-2,9.844116E-2,-4.299353E-2,7.343279E-2,4.4561173E-3],"split_indices":[4,2,0,3,1,2,2,0,1,0,1,0,0,0,0,0,0],"split_type":[0,0,0,0,0,0,0,0,0,0,0,0,0,0,0,0,0],"sum_hessian":[9.214305E2,8.976866E2,2.3743933E1,8.8196454E2,1.5722026E1,8.7760504E2,4.359502E0,1.1593085E1,4.128941E0,8.7340656E2,4.1984644E0,2.0346618E0,2.32484E0,1.2006552E0,2.928286E0,2.7843604E0,1.414104E0],"tree_param":{"num_deleted":"0","num_feature":"5","num_nodes":"17","size_leaf_vector":"1"}},{"base_weights":[-4.750874E-1,-5.589987E-1,1.0588106E0],"categories":[],"categories_nodes":[],"categories_segments":[],"categories_sizes":[],"default_left":[1,0,0],"id":41,"left_children":[1,-1,-1],"loss_changes":[5.134118E1,0E0,0E0],"parents":[2147483647,0,0],"right_children":[2,-1,-1],"split_conditions":[1.5203362E0,-5.589987E-2,1.0588106E-1],"split_indices":[0,0,0],"split_type":[0,0,0],"sum_hessian":[3.9328784E2,3.734917E2,1.9796146E1],"tree_param":{"num_deleted":"0","num_feature":"5","num_nodes":"3","size_leaf_vector":"1"}},{"base_weights":[-4.681976E-1,-5.5382204E-1,9.3048644E-1,7.689999E-2,9.7865105E-1],"categories":[],"categories_nodes":[],"categories_segments":[],"categories_sizes":[],"default_left":[1,0,1,0,0],"id":42,"left_children":[1,-1,3,-1,-1],"loss_changes":[4.4774635E1,0E0,8.165531E-1,0E0,0E0],"parents":[2147483647,0,0,2,2],"right_children":[2,-1,4,-1,-1],"split_conditions":[2.7074904E0,-5.5382203E-2,3.7914556E-2,7.689999E-3,9.7865105E-2],"split_indices":[1,0,3,0,0],"split_type":[0,0,0,0,0],"sum_hessian":[3.6856198E2,3.4787015E2,2.0691828E1,1.2438898E0,1.9447937E1],"tree_param":{"num_deleted":"0","num_feature":"5","num_nodes":"5","size_leaf_vector":"1"}},{"base_weights":[-4.686188E-1,-5.5383927E-1,9.7239697E-1],"categories":[],"categories_nodes":[],"categories_segments":[],"categories_sizes":[],"default_left":[1,0,0],"id":43,"left_children":[1,-1,-1],"loss_changes":[4.5907722E1,0E0,0E0],"parents":[2147483647,0,0],"right_children":[2,-1,-1],"split_conditions":[3.1695018E0,-5.5383928E-2,9.7239695E-2],"split_indices":[4,0,0],"split_type":[0,0,0],"sum_hessian":[3.684438E2,3.4845227E2,1.999151E1],"tree_param":{"num_deleted":"0","num_feature":"5","num_nodes":"3","size_leaf_vector":"1"}},{"base_weights":[-5.121046E-1,-5.460636E-1,8.3941674E-1,9.174037E-2,-5.538072E-1,4.0794346E-1,-3.535376E-1],"categories":[],"categories_nodes":[],"categories_segments":[],"categories_sizes":[],"default_left":[1,1,0,1,0,0,0],"id":44,"left_children":[1,3,-1,5,-1,-1,-1],"loss_changes":[1.7124695E1,1.8033066E0,0E0,8.643018E-1,0E0,0E0,0E0],"parents":[2147483647,0,0,1,1,3,3],"right_children":[2,4,-1,6,-1,-1,-1],"split_conditions":[5.6568794E0,3.5660662E-4,8.3941676E-2,0E0,-5.538072E-2,4.0794346E-2,-3.535376E-2],"split_indices":[3,2,0,0,0,0,0],"split_type":[0,0,0,0,0,0,0],"sum_hessian":[3.6212952E2,3.5383484E2,8.294679E0,4.1142564E0,3.4972058E2,2.4548507E0,1.6594058E0],"tree_param":{"num_deleted":"0","num_feature":"5","num_nodes":"7","size_leaf_vector":"1"}},{"base_weights":[-3.9308545E-1,-5.509569E-1,9.063044E-1,-5.5374223E-1,-2.7579325E-1,4.1308883E-1,9.4850826E-1,1.70218E-1,-4.3099168E-1,-1.08554594E-1,8.38888E-1,1.4817068E-1,-3.2504165E-1],"categories":[],"categories_nodes":[],"categories_segments":[],"categories_sizes":[],"default_left":[1,1,1,0,1,1,0,0,0,1,0,0,0],"id":45,"left_children":[1,3,5,-1,7,9,-1,-1,-1,11,-1,-1,-1],"loss_changes":[7.8961624E1,1.0915375E-1,4.7858047E-1,0E0,4.4826934E-1,1.2166395E0,0E0,0E0,0E0,2.2394651E-1,0E0,0E0,0E0],"parents":[2147483647,0,0,1,1,2,2,4,4,5,5,9,9],"right_children":[2,4,6,-1,8,10,-1,-1,-1,12,-1,-1,-1],"split_conditions":[5.4042177E0,3.923633E0,6.292618E0,-5.5374224E-2,4.1092525E0,1.1562469E0,9.485083E-2,1.7021801E-2,-4.309917E-2,9.2609656E-1,8.38888E-2,1.4817068E-2,-3.2504167E-2],"split_indices":[2,2,2,0,2,1,0,0,0,1,0,0,0],"split_type":[0,0,0,0,0,0,0,0,0,0,0,0,0],"sum_hessian":[3.8148813E2,3.4067346E2,4.081467E1,3.362573E2,4.4161453E0,4.0675216E0,3.674715E1,1.1150172E0,3.3011281E0,2.1628666E0,1.9046551E0,1.1338441E0,1.0290225E0],"tree_param":{"num_deleted":"0","num_feature":"5","num_nodes":"13","size_leaf_vector":"1"}},{"base_weights":[9.2461973E-1,9.611477E-1,-5.337676E-1,9.835556E-1,-3.4931722E-1,9.8892313E-1,-1.00411594E-1,-5.116501E-1,1.0435917E-1,9.906444E-1,5.147516E-1,-3.776232E-1,1.7582653E-1,9.4227237E-1,-4.2054045E-1,6.788074E-1,4.0361214E-2],"categories":[],"categories_nodes":[],"categories_segments":[],"categories_sizes":[],"default_left":[1,1,0,1,1,1,1,0,1,0,1,0,0,0,0,0,0],"id":46,"left_children":[1,3,-1,5,7,9,11,-1,13,-1,15,-1,-1,-1,-1,-1,-1],"loss_changes":[4.9808228E1,2.6862793E1,0E0,5.2668457E0,1.225887E0,2.1148682E-1,4.7103548E-1,0E0,2.6068075E0,0E0,3.8341975E-1,0E0,0E0,0E0,0E0,0E0,0E0],"parents":[2147483647,0,0,1,1,3,3,4,4,5,5,6,6,8,8,10,10],"right_children":[2,4,-1,6,8,10,12,-1,14,-1,16,-1,-1,-1,-1,-1,-1],"split_conditions":[3.31464E-2,6.292618E0,-5.337676E-2,5.0666666E0,7.161773E-1,5.4042177E0,2.101126E-1,-5.116501E-2,7.6838166E-1,9.906444E-2,1.0691683E0,-3.776232E-2,1.7582653E-2,9.422724E-2,-4.2054046E-2,6.788074E-2,4.0361215E-3],"split_indices":[4,2,0,3,1,2,2,0,1,0,1,0,0,0,0,0,0],"split_type":[0,0,0,0,0,0,0,0,0,0,0,0,0,0,0,0,0],"sum_hessian":[9.2434845E2,9.020948E2,2.2253689E1,8.8717426E2,1.4920509E1,8.8289014E2,4.284125E0,1.0894493E1,4.0260153E0,8.786115E2,4.278631E0,1.9551072E0,2.3290176E0,1.2443979E0,2.7816176E0,2.859011E0,1.4196203E0],"tree_param":{"num_deleted":"0","num_feature":"5","num_nodes":"17","size_leaf_vector":"1"}},{"base_weights":[-4.686188E-1,-5.5383927E-1,9.7239697E-1],"categories":[],"categories_nodes":[],"categories_segments":[],"categories_sizes":[],"default_left":[1,0,0],"id":47,"left_children":[1,-1,-1],"loss_changes":[4.5907722E1,0E0,0E0],"parents":[2147483647,0,0],"right_children":[2,-1,-1],"split_conditions":[1.5203362E0,-5.5383928E-2,9.7239695E-2],"split_indices":[0,0,0],"split_type":[0,0,0],"sum_hessian":[3.684438E2,3.4845227E2,1.999151E1],"tree_param":{"num_deleted":"0","num_feature":"5","num_nodes":"3","size_leaf_vector":"1"}},{"base_weights":[-4.621005E-1,-5.490234E-1,8.6342883E-1,7.331135E-2,9.078219E-1],"categories":[],"categories_nodes":[],"categories_segments":[],"categories_sizes":[],"default_left":[1,0,1,0,0],"id":48,"left_children":[1,-1,3,-1,-1],"loss_changes":[4.027887E1,0E0,6.9281006E-1,0E0,0E0],"parents":[2147483647,0,0,2,2],"right_children":[2,-1,4,-1,-1],"split_conditions":[2.7074904E0,-5.490234E-2,1.3246492E-1,7.331135E-3,9.078219E-2],"split_indices":[1,0,4,0,0],"split_type":[0,0,0,0,0],"sum_hessian":[3.4447153E2,3.2382236E2,2.0649162E1,1.239511E0,1.940965E1],"tree_param":{"num_deleted":"0","num_feature":"5","num_nodes":"5","size_leaf_vector":"1"}},{"base_weights":[-4.6263385E-1,-5.490432E-1,9.022187E-1],"categories":[],"categories_nodes":[],"categories_segments":[],"categories_sizes":[],"default_left":[1,0,0],"id":49,"left_children":[1,-1,-1],"loss_changes":[4.1220146E1,0E0,0E0],"parents":[2147483647,0,0],"right_children":[2,-1,-1],"split_conditions":[3.1695018E0,-5.490432E-2,9.0221874E-2],"split_indices":[4,0,0],"split_type":[0,0,0],"sum_hessian":[3.443126E2,3.2437408E2,1.993852E1],"tree_param":{"num_deleted":"0","num_feature":"5","num_nodes":"3","size_leaf_vector":"1"}},{"base_weights":[-5.058861E-1,-5.4076964E-1,7.718384E-1,9.733345E-2,-5.490095E-1,8.289908E-1,2.769191E-1,3.9591742E-1,-3.4421685E-1,2.769191E-1,9.1224575E-1,8.126214E-1,-3.179833E-1],"categories":[],"categories_nodes":[],"categories_segments":[],"categories_sizes":[],"default_left":[1,1,1,1,0,1,0,1,0,0,0,0,0],"id":50,"left_children":[1,3,5,7,-1,9,-1,11,-1,-1,-1,-1,-1],"loss_changes":[1.5527885E1,1.7916565E0,3.6934376E-2,8.039122E-1,0E0,1.12538815E-1,0E0,1.2954736E0,0E0,0E0,0E0,0E0,0E0],"parents":[2147483647,0,0,1,1,2,2,3,3,5,5,7,7],"right_children":[2,4,6,8,-1,10,-1,12,-1,-1,-1,-1,-1],"split_conditions":[5.6568794E0,3.5660662E-4,2.83E-1,0E0,-5.490095E-2,3.3165E1,2.769191E-2,4.970278E-2,-3.4421686E-2,2.769191E-2,9.122457E-2,8.126214E-2,-3.179833E-2],"split_indices":[3,2,2,0,0,3,0,3,0,0,0,0,0],"split_type":[0,0,0,0,0,0,0,0,0,0,0,0,0],"sum_hessian":[3.380163E2,3.295947E2,8.421601E0,4.0639534E0,3.2553073E2,6.9446445E0,1.4769567E0,2.4861338E0,1.5778197E0,1.4769567E0,5.4676876E0,1.4825093E0,1.0036244E0],"tree_param":{"num_deleted":"0","num_feature":"5","num_nodes":"13","size_leaf_vector":"1"}},{"base_weights":[-3.8605583E-1,-5.4595125E-1,8.379631E-1,-5.4893297E-1,-2.613738E-1,3.8825703E-1,8.765362E-1,1.8074043E-1,-4.220979E-1,-1.060949E-1,7.8508526E-1,1.4631487E-1,-3.212585E-1],"categories":[],"categories_nodes":[],"categories_segments":[],"categories_sizes":[],"default_left":[1,1,1,0,1,1,0,0,0,1,0,0,0],"id":51,"left_children":[1,3,5,-1,7,9,-1,-1,-1,11,-1,-1,-1],"loss_changes":[7.072989E1,1.2650299E-1,3.8613892E-1,0E0,4.4637245E-1,1.0844665E0,0E0,0E0,0E0,2.1826784E-1,0E0,0E0,0E0],"parents":[2147483647,0,0,1,1,2,2,4,4,5,5,9,9],"right_children":[2,4,6,-1,8,10,-1,-1,-1,12,-1,-1,-1],"split_conditions":[5.4042177E0,3.923633E0,6.292618E0,-5.4893296E-2,8.7237525E-1,1.1562469E0,8.765362E-2,1.8074043E-2,-4.220979E-2,9.2609656E-1,7.8508526E-2,1.4631487E-2,-3.212585E-2],"split_indices":[2,2,2,0,1,1,0,0,0,1,0,0,0],"split_type":[0,0,0,0,0,0,0,0,0,0,0,0,0],"sum_hessian":[3.580547E2,3.1717554E2,4.0879147E1,3.129674E2,4.2081423E0,4.103525E0,3.6775623E1,1.0887388E0,3.1194034E0,2.1534681E0,1.9500573E0,1.1382099E0,1.0152581E0],"tree_param":{"num_deleted":"0","num_feature":"5","num_nodes":"13","size_leaf_vector":"1"}},{"base_weights":[8.604189E-1,8.9323753E-1,-5.2779365E-1,9.1332614E-1,-3.363847E-1,9.1824895E-1,-9.2212774E-2,-5.0471663E-1,1.1573371E-1,9.1988325E-1,4.7868317E-1,-3.6991683E-1,1.752978E-1,9.048341E-1,-4.111614E-1,6.298293E-1,3.6812976E-2],"categories":[],"categories_nodes":[],"categories_segments":[],"categories_sizes":[],"default_left":[1,1,0,1,1,1,1,0,1,0,1,0,0,0,0,0,0],"id":52,"left_children":[1,3,-1,5,7,9,11,-1,13,-1,15,-1,-1,-1,-1,-1,-1],"loss_changes":[4.2263123E1,2.2451904E1,0E0,4.4523926E0,1.210779E0,1.9049072E-1,4.5169893E-1,0E0,2.4182508E0,0E0,3.3330667E-1,0E0,0E0,0E0,0E0,0E0,0E0],"parents":[2147483647,0,0,1,1,3,3,4,4,5,5,6,6,8,8,10,10],"right_children":[2,4,-1,6,8,10,12,-1,14,-1,16,-1,-1,-1,-1,-1,-1],"split_conditions":[3.31464E-2,6.292618E0,-5.2779365E-2,5.0666666E0,7.161773E-1,5.4042177E0,2.101126E-1,-5.0471663E-2,7.6838166E-1,9.1988325E-2,1.0691683E0,-3.6991682E-2,1.752978E-2,9.048341E-2,-4.111614E-2,6.298293E-2,3.6812976E-3],"split_indices":[4,2,0,3,1,2,2,0,1,0,1,0,0,0,0,0,0],"split_type":[0,0,0,0,0,0,0,0,0,0,0,0,0,0,0,0,0],"sum_hessian":[9.163067E2,8.95493E2,2.0813711E1,8.813514E2,1.4141606E1,8.771439E2,4.2074265E0,1.022013E1,3.9214768E0,8.7280615E2,4.337755E0,1.876554E0,2.3308723E0,1.2828827E0,2.6385942E0,2.9152076E0,1.4225475E0],"tree_param":{"num_deleted":"0","num_feature":"5","num_nodes":"17","size_leaf_vector":"1"}},{"base_weights":[-4.6263385E-1,-5.490432E-1,9.022187E-1],"categories":[],"categories_nodes":[],"categories_segments":[],"categories_sizes":[],"default_left":[1,0,0],"id":53,"left_children":[1,-1,-1],"loss_changes":[4.1220146E1,0E0,0E0],"parents":[2147483647,0,0],"right_children":[2,-1,-1],"split_conditions":[1.5203362E0,-5.490432E-2,9.0221874E-2],"split_indices":[0,0,0],"split_type":[0,0,0],"sum_hessian":[3.443126E2,3.2437408E2,1.993852E1],"tree_param":{"num_deleted":"0","num_feature":"5","num_nodes":"3","size_leaf_vector":"1"}},{"base_weights":[-4.5644617E-1,-5.445702E-1,8.077302E-1,6.3674234E-2,8.502595E-1],"categories":[],"categories_nodes":[],"categories_segments":[],"categories_sizes":[],"default_left":[1,0,1,0,0],"id":54,"left_children":[1,-1,3,-1,-1],"loss_changes":[3.633618E1,0E0,6.2305355E-1,0E0,0E0],"parents":[2147483647,0,0,2,2],"right_children":[2,-1,4,-1,-1],"split_conditions":[2.7074904E0,-5.445702E-2,3.7914556E-2,6.3674236E-3,8.502595E-2],"split_indices":[1,0,3,0,0],"split_type":[0,0,0,0,0],"sum_hessian":[3.2121646E2,3.008162E2,2.0400269E1,1.2380248E0,1.9162245E1],"tree_param":{"num_deleted":"0","num_feature":"5","num_nodes":"5","size_leaf_vector":"1"}},{"base_weights":[-4.5710424E-1,-5.4459274E-1,8.442816E-1],"categories":[],"categories_nodes":[],"categories_segments":[],"categories_sizes":[],"default_left":[1,0,0],"id":55,"left_children":[1,-1,-1],"loss_changes":[3.7123283E1,0E0,0E0],"parents":[2147483647,0,0],"right_children":[2,-1,-1],"split_conditions":[3.1695018E0,-5.4459274E-2,8.442816E-2],"split_indices":[4,0,0],"split_type":[0,0,0],"sum_hessian":[3.2101553E2,3.013389E2,1.9676632E1],"tree_param":{"num_deleted":"0","num_feature":"5","num_nodes":"3","size_leaf_vector":"1"}},{"base_weights":[-4.9986082E-1,-5.357681E-1,7.185787E-1,1.0452649E-1,-5.4455566E-1,7.7196753E-1,2.5820732E-1,3.880712E-1,-3.3485678E-1,2.5820732E-1,8.4979284E-1],"categories":[],"categories_nodes":[],"categories_segments":[],"categories_sizes":[],"default_left":[1,1,1,1,0,1,0,0,0,0,0],"id":56,"left_children":[1,3,5,7,-1,9,-1,-1,-1,-1,-1],"loss_changes":[1.4203629E1,1.7864304E0,3.340006E-2,7.5292265E-1,0E0,9.973192E-2,0E0,0E0,0E0,0E0,0E0],"parents":[2147483647,0,0,1,1,2,2,3,3,5,5],"right_children":[2,4,6,8,-1,10,-1,-1,-1,-1,-1],"split_conditions":[5.6568794E0,3.5660662E-4,2.83E-1,0E0,-5.4455567E-2,3.3165E1,2.5820732E-2,3.880712E-2,-3.3485677E-2,2.5820732E-2,8.497929E-2],"split_indices":[3,2,2,0,0,3,0,0,0,0,0],"split_type":[0,0,0,0,0,0,0,0,0,0,0],"sum_hessian":[3.1484854E2,3.0637985E2,8.468698E0,4.000404E0,3.0237946E2,6.9821486E0,1.4865489E0,2.502355E0,1.4980488E0,1.4865489E0,5.4955997E0],"tree_param":{"num_deleted":"0","num_feature":"5","num_nodes":"11","size_leaf_vector":"1"}},{"base_weights":[-3.7946767E-1,-5.4126805E-1,7.8081536E-1,-5.4446924E-1,-2.4664783E-1,8.5674596E-1,5.25138E-1,1.9293074E-1,-4.1340306E-1,-4.5159677E-1,6.927585E-1,2.692211E-1,8.436229E-1,-3.5318267E-1,6.540012E-1],"categories":[],"categories_nodes":[],"categories_segments":[],"categories_sizes":[],"default_left":[1,1,1,0,1,0,1,0,0,0,1,1,0,0,0],"id":57,"left_children":[1,3,5,-1,7,-1,9,-1,-1,-1,11,13,-1,-1,-1],"loss_changes":[6.3548927E1,1.4459229E-1,3.5694885E-1,0E0,4.4674498E-1,0E0,2.293893E0,0E0,0E0,0E0,4.5800495E-1,1.2571651E0,0E0,0E0,0E0],"parents":[2147483647,0,0,1,1,2,2,4,4,6,6,10,10,11,11],"right_children":[2,4,6,-1,8,-1,10,-1,-1,-1,12,14,-1,-1,-1],"split_conditions":[5.4042177E0,3.923633E0,7.161773E-1,-5.4446924E-2,4.1092525E0,8.56746E-2,7.6838166E-1,1.9293075E-2,-4.1340306E-2,-4.515968E-2,1.1456141E0,6.5702534E0,8.436229E-2,-3.5318267E-2,6.5400116E-2],"split_indices":[2,2,1,0,2,0,1,0,0,0,1,2,0,0,0],"split_type":[0,0,0,0,0,0,0,0,0,0,0,0,0,0,0],"sum_hessian":[3.3525357E2,2.946925E2,4.056109E1,2.90686E2,4.0065026E0,2.9460941E1,1.1100146E1,1.0587069E0,2.9477956E0,1.3777503E0,9.722396E0,3.2848938E0,6.4375024E0,1.2863184E0,1.9985753E0],"tree_param":{"num_deleted":"0","num_feature":"5","num_nodes":"15","size_leaf_vector":"1"}},{"base_weights":[8.0751246E-1,8.374333E-1,-5.220131E-1,8.5572153E-1,-3.2326338E-1,8.603483E-1,-8.6442165E-2,-4.9789357E-1,1.2718692E-1,8.619387E-1,4.4636238E-1,-3.6107713E-1,1.672615E-1,8.714589E-1,-4.0179965E-1,5.862642E-1,3.3828534E-2],"categories":[],"categories_nodes":[],"categories_segments":[],"categories_sizes":[],"default_left":[1,1,0,1,1,1,1,0,1,0,1,0,0,0,0,0,0],"id":58,"left_children":[1,3,-1,5,7,9,11,-1,13,-1,15,-1,-1,-1,-1,-1,-1],"loss_changes":[3.6248474E1,1.8973389E1,0E0,3.8555298E0,1.1951638E0,1.8359375E-1,4.1905206E-1,0E0,2.2463772E0,0E0,2.9053998E-1,0E0,0E0,0E0,0E0,0E0,0E0],"parents":[2147483647,0,0,1,1,3,3,4,4,5,5,6,6,8,8,10,10],"right_children":[2,4,-1,6,8,10,12,-1,14,-1,16,-1,-1,-1,-1,-1,-1],"split_conditions":[3.31464E-2,6.292618E0,-5.2201312E-2,5.0666666E0,7.161773E-1,5.4042177E0,2.101126E-1,-4.9789358E-2,7.6838166E-1,8.6193874E-2,1.0691683E0,-3.6107715E-2,1.672615E-2,8.714589E-2,-4.0179964E-2,5.862642E-2,3.3828535E-3],"split_indices":[4,2,0,3,1,2,2,0,1,0,1,0,0,0,0,0,0],"split_type":[0,0,0,0,0,0,0,0,0,0,0,0,0,0,0,0,0],"sum_hessian":[8.9922327E2,8.7979376E2,1.9429497E1,8.6640515E2,1.3388588E1,8.622576E2,4.1475153E0,9.572288E0,3.8163009E0,8.578799E2,4.377744E0,1.7883725E0,2.3591428E0,1.316543E0,2.4997578E0,2.9546194E0,1.4231246E0],"tree_param":{"num_deleted":"0","num_feature":"5","num_nodes":"17","size_leaf_vector":"1"}},{"base_weights":[-4.5710424E-1,-5.4459274E-1,8.442816E-1],"categories":[],"categories_nodes":[],"categories_segments":[],"categories_sizes":[],"default_left":[1,0,0],"id":59,"left_children":[1,-1,-1],"loss_changes":[3.7123283E1,0E0,0E0],"parents":[2147483647,0,0],"right_children":[2,-1,-1],"split_conditions":[1.5203362E0,-5.4459274E-2,8.442816E-2],"split_indices":[0,0,0],"split_type":[0,0,0],"sum_hessian":[3.2101553E2,3.013389E2,1.9676632E1],"tree_param":{"num_deleted":"0","num_feature":"5","num_nodes":"3","size_leaf_vector":"1"}},{"base_weights":[-4.511954E-1,-5.404388E-1,7.608123E-1,6.1244998E-2,8.0119133E-1],"categories":[],"categories_nodes":[],"categories_segments":[],"categories_sizes":[],"default_left":[1,0,1,0,0],"id":60,"left_children":[1,-1,3,-1,-1],"loss_changes":[3.284645E1,0E0,5.436106E-1,0E0,0E0],"parents":[2147483647,0,0,2,2],"right_children":[2,-1,4,-1,-1],"split_conditions":[2.7074904E0,-5.4043878E-2,1.3246492E-1,6.1244997E-3,8.011913E-2],"split_indices":[1,0,4,0,0],"split_type":[0,0,0,0,0],"sum_hessian":[2.988723E2,2.7889093E2,1.998139E1,1.2277288E0,1.875366E1],"tree_param":{"num_deleted":"0","num_feature":"5","num_nodes":"5","size_leaf_vector":"1"}},{"base_weights":[-4.5199034E-1,-5.404638E-1,7.957822E-1],"categories":[],"categories_nodes":[],"categories_segments":[],"categories_sizes":[],"default_left":[1,0,0],"id":61,"left_children":[1,-1,-1],"loss_changes":[3.3507534E1,0E0,0E0],"parents":[2147483647,0,0],"right_children":[2,-1,-1],"split_conditions":[3.1695018E0,-5.404638E-2,7.957822E-2],"split_indices":[4,0,0],"split_type":[0,0,0],"sum_hessian":[2.9862872E2,2.793857E2,1.924302E1],"tree_param":{"num_deleted":"0","num_feature":"5","num_nodes":"3","size_leaf_vector":"1"}},{"base_weights":[-4.9407724E-1,-5.3102195E-1,6.722192E-1,1.1125141E-1,-5.4042363E-1,7.228848E-1,2.4072464E-1,3.7961286E-1,-3.254728E-1,2.4072464E-1,7.969264E-1],"categories":[],"categories_nodes":[],"categories_segments":[],"categories_sizes":[],"default_left":[1,1,1,1,0,1,0,0,0,0,0],"id":62,"left_children":[1,3,5,7,-1,9,-1,-1,-1,-1,-1],"loss_changes":[1.3012978E1,1.7826691E0,3.2794E-2,7.030774E-1,0E0,9.256506E-2,0E0,0E0,0E0,0E0,0E0],"parents":[2147483647,0,0,1,1,2,2,3,3,5,5],"right_children":[2,4,6,8,-1,10,-1,-1,-1,-1,-1],"split_conditions":[5.6568794E0,3.5660662E-4,2.83E-1,0E0,-5.4042365E-2,3.3165E1,2.4072465E-2,3.7961286E-2,-3.254728E-2,2.4072465E-2,7.969264E-2],"split_indices":[3,2,2,0,0,3,0,0,0,0,0],"split_type":[0,0,0,0,0,0,0,0,0,0,0],"sum_hessian":[2.927213E2,2.8426147E2,8.459846E0,3.944744E0,2.8031674E2,6.966539E0,1.4933066E0,2.5243409E0,1.4204032E0,1.4933066E0,5.4732323E0],"tree_param":{"num_deleted":"0","num_feature":"5","num_nodes":"11","size_leaf_vector":"1"}},{"base_weights":[-3.7329084E-1,-5.368829E-1,7.3321253E-1,-5.403289E-1,-2.3161529E-1,8.0556005E-1,4.9134862E-1,2.0365322E-1,-4.0448225E-1,-4.378159E-1,6.506761E-1,2.4921785E-1,7.936276E-1,-3.479609E-1,6.177348E-1],"categories":[],"categories_nodes":[],"categories_segments":[],"categories_sizes":[],"default_left":[1,1,1,0,1,0,1,0,0,0,1,1,0,0,0],"id":63,"left_children":[1,3,5,-1,7,-1,9,-1,-1,-1,11,13,-1,-1,-1],"loss_changes":[5.7260395E1,1.6337585E-1,3.196373E-1,0E0,4.4442984E-1,0E0,2.0581126E0,0E0,0E0,0E0,4.1208315E-1,1.1498514E0,0E0,0E0,0E0],"parents":[2147483647,0,0,1,1,2,2,4,4,6,6,10,10,11,11],"right_children":[2,4,6,-1,8,-1,10,-1,-1,-1,12,14,-1,-1,-1],"split_conditions":[5.4042177E0,3.923633E0,7.161773E-1,-5.4032892E-2,8.7237525E-1,8.0556005E-2,7.6838166E-1,2.0365322E-2,-4.0448226E-2,-4.378159E-2,1.1456141E0,6.5702534E0,7.9362765E-2,-3.479609E-2,6.177348E-2],"split_indices":[2,2,1,0,1,0,1,0,0,0,1,2,0,0,0],"split_type":[0,0,0,0,0,0,0,0,0,0,0,0,0,0,0],"sum_hessian":[3.1315463E2,2.7326788E2,3.988676E1,2.694561E2,3.8117847E0,2.8908787E1,1.0977972E1,1.0329036E0,2.778881E0,1.3510472E0,9.6269245E0,3.2482023E0,6.378722E0,1.2608253E0,1.987377E0],"tree_param":{"num_deleted":"0","num_feature":"5","num_nodes":"15","size_leaf_vector":"1"}},{"base_weights":[7.6332015E-1,7.909343E-1,-5.1640075E-1,8.078575E-1,-3.1247714E-1,8.12271E-1,-8.061683E-2,-4.9094552E-1,1.2707102E-1,8.138265E-1,4.2058843E-1,-3.5219E-1,1.5998857E-1,8.1158245E-1,-3.9285982E-1,5.2659124E-1,8.157277E-1,5.5076104E-1,3.2418698E-2],"categories":[],"categories_nodes":[],"categories_segments":[],"categories_sizes":[],"default_left":[1,1,0,1,1,1,1,0,1,1,1,0,0,0,0,0,0,0,0],"id":64,"left_children":[1,3,-1,5,7,9,11,-1,13,15,17,-1,-1,-1,-1,-1,-1,-1,-1],"loss_changes":[3.1359467E1,1.6269287E1,0E0,3.3792725E0,1.1353376E0,1.7004395E-1,3.887283E-1,0E0,2.0072849E0,2.7282715E-2,2.5480324E-1,0E0,0E0,0E0,0E0,0E0,0E0,0E0,0E0],"parents":[2147483647,0,0,1,1,3,3,4,4,5,5,6,6,8,8,9,9,10,10],"right_children":[2,4,-1,6,8,10,12,-1,14,16,18,-1,-1,-1,-1,-1,-1,-1,-1],"split_conditions":[3.31464E-2,6.292618E0,-5.1640075E-2,5.0666666E0,7.161773E-1,5.4042177E0,2.101126E-1,-4.9094554E-2,7.6838166E-1,3.5660662E-4,1.0691683E0,-3.5219E-2,1.5998857E-2,8.115824E-2,-3.9285984E-2,5.2659124E-2,8.157277E-2,5.5076104E-2,3.2418699E-3],"split_indices":[4,2,0,3,1,2,2,0,1,2,1,0,0,0,0,0,0,0,0],"split_type":[0,0,0,0,0,0,0,0,0,0,0,0,0,0,0,0,0,0,0],"sum_hessian":[8.7484686E2,8.567418E2,1.810508E1,8.440641E2,1.2677692E1,8.399773E2,4.0868063E0,8.933514E0,3.744179E0,8.3558124E2,4.3960657E0,1.7019905E0,2.384816E0,1.3741319E0,2.370047E0,7.3222346E0,8.2825903E2,2.9783955E0,1.4176702E0],"tree_param":{"num_deleted":"0","num_feature":"5","num_nodes":"19","size_leaf_vector":"1"}},{"base_weights":[-4.5199034E-1,-5.404638E-1,7.957822E-1],"categories":[],"categories_nodes":[],"categories_segments":[],"categories_sizes":[],"default_left":[1,0,0],"id":65,"left_children":[1,-1,-1],"loss_changes":[3.3507534E1,0E0,0E0],"parents":[2147483647,0,0],"right_children":[2,-1,-1],"split_conditions":[1.5203362E0,-5.404638E-2,7.957822E-2],"split_indices":[0,0,0],"split_type":[0,0,0],"sum_hessian":[2.9862872E2,2.793857E2,1.924302E1],"tree_param":{"num_deleted":"0","num_feature":"5","num_nodes":"3","size_leaf_vector":"1"}},{"base_weights":[-4.4632182E-1,-5.366118E-1,7.2081846E-1,5.2585255E-2,7.6045716E-1],"categories":[],"categories_nodes":[],"categories_segments":[],"categories_sizes":[],"default_left":[1,0,1,0,0],"id":66,"left_children":[1,-1,3,-1,-1],"loss_changes":[2.9737263E1,0E0,5.010462E-1,0E0,0E0],"parents":[2147483647,0,0,2,2],"right_children":[2,-1,4,-1,-1],"split_conditions":[2.7074904E0,-5.366118E-2,3.7914556E-2,5.2585257E-3,7.6045714E-2],"split_indices":[1,0,3,0,0],"split_type":[0,0,0,0,0],"sum_hessian":[2.775175E2,2.5809177E2,1.9425745E1,1.2180667E0,1.8207678E1],"tree_param":{"num_deleted":"0","num_feature":"5","num_nodes":"5","size_leaf_vector":"1"}},{"base_weights":[-4.472664E-1,-5.366395E-1,7.546939E-1],"categories":[],"categories_nodes":[],"categories_segments":[],"categories_sizes":[],"default_left":[1,0,0],"id":67,"left_children":[1,-1,-1],"loss_changes":[3.029348E1,0E0,0E0],"parents":[2147483647,0,0],"right_children":[2,-1,-1],"split_conditions":[3.1695018E0,-5.366395E-2,7.54694E-2],"split_indices":[4,0,0],"split_type":[0,0,0],"sum_hessian":[2.772319E2,2.5855994E2,1.8671982E1],"tree_param":{"num_deleted":"0","num_feature":"5","num_nodes":"3","size_leaf_vector":"1"}},{"base_weights":[-4.8855E-1,-5.2654964E-1,6.314216E-1,1.10405356E-1,-5.365902E-1,6.8014973E-1,2.2436462E-1,3.6432397E-1,-3.187506E-1,2.2436462E-1,7.5165313E-1],"categories":[],"categories_nodes":[],"categories_segments":[],"categories_sizes":[],"default_left":[1,1,1,1,0,1,0,0,0,0,0],"id":68,"left_children":[1,3,5,7,-1,9,-1,-1,-1,-1,-1],"loss_changes":[1.1937859E1,1.7494736E0,3.3914566E-2,6.5344226E-1,0E0,8.900499E-2,0E0,0E0,0E0,0E0,0E0],"parents":[2147483647,0,0,1,1,2,2,3,3,5,5],"right_children":[2,4,6,8,-1,10,-1,-1,-1,-1,-1],"split_conditions":[5.6568794E0,3.5660662E-4,2.83E-1,0E0,-5.365902E-2,3.3165E1,2.2436462E-2,3.6432397E-2,-3.187506E-2,2.2436462E-2,7.516532E-2],"split_indices":[3,2,2,0,0,3,0,0,0,0,0],"split_type":[0,0,0,0,0,0,0,0,0,0,0],"sum_hessian":[2.716925E2,2.632892E2,8.403311E0,3.93081E0,2.593584E2,6.90574E0,1.4975706E0,2.5645258E0,1.366284E0,1.4975706E0,5.4081693E0],"tree_param":{"num_deleted":"0","num_feature":"5","num_nodes":"11","size_leaf_vector":"1"}},{"base_weights":[-3.6749E-1,-5.327747E-1,6.924885E-1,-5.364931E-1,-2.1626657E-1,3.1152317E-1,7.2820383E-1,2.159367E-1,-3.9574435E-1,-1.0947124E-1,6.52955E-1],"categories":[],"categories_nodes":[],"categories_segments":[],"categories_sizes":[],"default_left":[1,1,1,0,1,1,0,0,0,0,0],"id":69,"left_children":[1,3,5,-1,7,9,-1,-1,-1,-1,-1],"loss_changes":[5.16823E1,1.8283844E-1,3.1664276E-1,0E0,4.4415474E-1,8.1482613E-1,0E0,0E0,0E0,0E0,0E0],"parents":[2147483647,0,0,1,1,2,2,4,4,5,5],"right_children":[2,4,6,-1,8,10,-1,-1,-1,-1,-1],"split_conditions":[5.4042177E0,3.923633E0,6.292618E0,-5.3649314E-2,4.1092525E0,1.1562469E0,7.282039E-2,2.1593671E-2,-3.9574437E-2,-1.0947124E-2,6.52955E-2],"split_indices":[2,2,2,0,2,1,0,0,0,0,0],"split_type":[0,0,0,0,0,0,0,0,0,0,0],"sum_hessian":[2.9188742E2,2.5294287E2,3.8944546E1,2.4931874E2,3.6241438E0,4.1714334E0,3.4773113E1,1.003782E0,2.6203618E0,2.1723027E0,1.9991305E0],"tree_param":{"num_deleted":"0","num_feature":"5","num_nodes":"11","size_leaf_vector":"1"}},{"base_weights":[7.260709E-1,7.518245E-1,-5.10933E-1,7.676626E-1,-3.020427E-1,7.719271E-1,-7.4790455E-2,-4.8405346E-1,1.2655501E-1,7.7347434E-1,3.9740747E-1,-3.432778E-1,1.5338106E-1,7.587668E-1,-3.839251E-1,4.9147773E-1,7.754234E-1,5.1888907E-1,3.1394742E-2],"categories":[],"categories_nodes":[],"categories_segments":[],"categories_sizes":[],"default_left":[1,1,0,1,1,1,1,0,1,1,1,0,0,0,0,0,0,0,0],"id":70,"left_children":[1,3,-1,5,7,9,11,-1,13,15,17,-1,-1,-1,-1,-1,-1,-1,-1],"loss_changes":[2.7326569E1,1.4066803E1,0E0,2.9925842E0,1.0746005E0,1.6363525E-1,3.6054975E-1,0E0,1.7967905E0,6.3201904E-2,2.2385675E-1,0E0,0E0,0E0,0E0,0E0,0E0,0E0,0E0],"parents":[2147483647,0,0,1,1,3,3,4,4,5,5,6,6,8,8,9,9,10,10],"right_children":[2,4,-1,6,8,10,12,-1,14,16,18,-1,-1,-1,-1,-1,-1,-1,-1],"split_conditions":[3.31464E-2,6.292618E0,-5.10933E-2,5.0666666E0,7.161773E-1,5.4042177E0,2.101126E-1,-4.8405346E-2,7.6838166E-1,3.5660662E-4,1.0691683E0,-3.4327783E-2,1.5338107E-2,7.5876676E-2,-3.839251E-2,4.9147774E-2,7.754234E-2,5.188891E-2,3.1394742E-3],"split_indices":[4,2,0,3,1,2,2,0,1,2,1,0,0,0,0,0,0,0,0],"split_type":[0,0,0,0,0,0,0,0,0,0,0,0,0,0,0,0,0,0,0],"sum_hessian":[8.4472064E2,8.27877E2,1.6843641E1,8.15887E2,1.1989989E1,8.11861E2,4.0259805E0,8.325181E0,3.6648085E0,8.074601E2,4.400959E0,1.6178262E0,2.4081542E0,1.419915E0,2.2448936E0,7.280414E0,8.001797E2,2.9906619E0,1.410297E0],"tree_param":{"num_deleted":"0","num_feature":"5","num_nodes":"19","size_leaf_vector":"1"}},{"base_weights":[-4.472664E-1,-5.366395E-1,7.546939E-1],"categories":[],"categories_nodes":[],"categories_segments":[],"categories_sizes":[],"default_left":[1,0,0],"id":71,"left_children":[1,-1,-1],"loss_changes":[3.029348E1,0E0,0E0],"parents":[2147483647,0,0],"right_children":[2,-1,-1],"split_conditions":[1.5203362E0,-5.366395E-2,7.54694E-2],"split_indices":[0,0,0],"split_type":[0,0,0],"sum_hessian":[2.772319E2,2.5855994E2,1.8671982E1],"tree_param":{"num_deleted":"0","num_feature":"5","num_nodes":"3","size_leaf_vector":"1"}},{"base_weights":[-4.4179663E-1,-5.330685E-1,6.863085E-1,5.0871663E-2,7.2476447E-1],"categories":[],"categories_nodes":[],"categories_segments":[],"categories_sizes":[],"default_left":[1,0,1,0,0],"id":72,"left_children":[1,-1,3,-1,-1],"loss_changes":[2.6951748E1,0E0,4.460926E-1,0E0,0E0],"parents":[2147483647,0,0,2,2],"right_children":[2,-1,4,-1,-1],"split_conditions":[2.7074904E0,-5.3306848E-2,1.3246492E-1,5.0871666E-3,7.247645E-2],"split_indices":[1,0,4,0,0],"split_type":[0,0,0,0,0],"sum_hessian":[2.5720502E2,2.3844089E2,1.8764128E1,1.2033372E0,1.7560791E1],"tree_param":{"num_deleted":"0","num_feature":"5","num_nodes":"5","size_leaf_vector":"1"}},{"base_weights":[-4.4290227E-1,-5.3309864E-1,7.195133E-1],"categories":[],"categories_nodes":[],"categories_segments":[],"categories_sizes":[],"default_left":[1,0,0],"id":73,"left_children":[1,-1,-1],"loss_changes":[2.7421005E1,0E0,0E0],"parents":[2147483647,0,0],"right_children":[2,-1,-1],"split_conditions":[3.1695018E0,-5.3309865E-2,7.195133E-2],"split_indices":[4,0,0],"split_type":[0,0,0],"sum_hessian":[2.5687833E2,2.3888379E2,1.7994549E1],"tree_param":{"num_deleted":"0","num_feature":"5","num_nodes":"3","size_leaf_vector":"1"}},{"base_weights":[-4.8322046E-1,-5.2229685E-1,5.9515107E-1,1.0974428E-1,-5.3304094E-1,6.4254403E-1,2.0903416E-1,3.503462E-1,-3.121202E-1,2.0903416E-1,7.124727E-1,7.363289E-1,-3.2038093E-1],"categories":[],"categories_nodes":[],"categories_segments":[],"categories_sizes":[],"default_left":[1,1,1,1,0,1,0,1,0,0,0,0,0],"id":74,"left_children":[1,3,5,7,-1,9,-1,11,-1,-1,-1,-1,-1],"loss_changes":[1.0962727E1,1.7186508E0,3.5996437E-2,6.0829467E-1,0E0,8.774519E-2,0E0,1.1682878E0,0E0,0E0,0E0,0E0,0E0],"parents":[2147483647,0,0,1,1,2,2,3,3,5,5,7,7],"right_children":[2,4,6,8,-1,10,-1,12,-1,-1,-1,-1,-1],"split_conditions":[5.6568794E0,3.5660662E-4,2.83E-1,0E0,-5.3304095E-2,3.3165E1,2.0903416E-2,4.970278E-2,-3.121202E-2,2.0903416E-2,7.124727E-2,7.363289E-2,-3.2038093E-2],"split_indices":[3,2,2,0,0,3,0,3,0,0,0,0,0],"split_type":[0,0,0,0,0,0,0,0,0,0,0,0,0],"sum_hessian":[2.5178061E2,2.4347366E2,8.306958E0,3.9156415E0,2.3955801E2,6.807296E0,1.4996622E0,2.6014729E0,1.3141687E0,1.4996622E0,5.3076334E0,1.5891558E0,1.012317E0],"tree_param":{"num_deleted":"0","num_feature":"5","num_nodes":"13","size_leaf_vector":"1"}},{"base_weights":[-3.619718E-1,-5.289182E-1,6.5636086E-1,-5.329394E-1,-2.006367E-1,7.286099E-1,4.247728E-1,1.7710428E-1,-3.8046864E-1,-4.346231E-1,5.792732E-1,2.0622738E-1,7.151321E-1,-3.4119523E-1,5.523459E-1],"categories":[],"categories_nodes":[],"categories_segments":[],"categories_sizes":[],"default_left":[1,1,1,0,1,0,1,0,0,0,1,1,0,0,0],"id":75,"left_children":[1,3,5,-1,7,-1,9,-1,-1,-1,11,13,-1,-1,-1],"loss_changes":[4.6686108E1,2.0292664E-1,3.4034157E-1,0E0,3.692799E-1,0E0,1.79639E0,0E0,0E0,0E0,3.7399197E-1,9.7516334E-1,0E0,0E0,0E0],"parents":[2147483647,0,0,1,1,2,2,4,4,6,6,10,10,11,11],"right_children":[2,4,6,-1,8,-1,10,-1,-1,-1,12,14,-1,-1,-1],"split_conditions":[5.4042177E0,3.923633E0,7.161773E-1,-5.329394E-2,9.850613E-1,7.286099E-2,7.6838166E-1,1.7710429E-2,-3.8046863E-2,-4.346231E-2,1.1456141E0,6.5702534E0,7.151321E-2,-3.4119524E-2,5.523459E-2],"split_indices":[2,2,1,0,1,0,1,0,0,0,1,2,0,0,0],"split_type":[0,0,0,0,0,0,0,0,0,0,0,0,0,0,0],"sum_hessian":[2.7157083E2,2.3373302E2,3.7837807E1,2.3028877E2,3.444247E0,2.720459E1,1.0633216E1,1.1157523E0,2.3284945E0,1.344037E0,9.289179E0,3.15207E0,6.1371093E0,1.2264831E0,1.9255869E0],"tree_param":{"num_deleted":"0","num_feature":"5","num_nodes":"15","size_leaf_vector":"1"}},{"base_weights":[6.9434786E-1,7.1858096E-1,-5.0558156E-1,7.3349243E-1,-2.888526E-1,7.3765904E-1,-6.901092E-2,-4.7738558E-1,1.3701299E-1,7.392478E-1,3.7245053E-1,-3.3436117E-1,1.473529E-1,7.357495E-1,-3.746146E-1,4.596389E-1,7.412746E-1,4.852469E-1,3.0324811E-2],"categories":[],"categories_nodes":[],"categories_segments":[],"categories_sizes":[],"default_left":[1,1,0,1,1,1,1,0,1,1,1,0,0,0,0,0,0,0,0],"id":76,"left_children":[1,3,-1,5,7,9,11,-1,13,15,17,-1,-1,-1,-1,-1,-1,-1,-1],"loss_changes":[2.395398E1,1.2164185E1,0E0,2.673462E0,1.0547619E0,1.7745972E-1,3.3435634E-1,0E0,1.6719333E0,9.899902E-2,1.9349748E-1,0E0,0E0,0E0,0E0,0E0,0E0,0E0,0E0],"parents":[2147483647,0,0,1,1,3,3,4,4,5,5,6,6,8,8,9,9,10,10],"right_children":[2,4,-1,6,8,10,12,-1,14,16,18,-1,-1,-1,-1,-1,-1,-1,-1],"split_conditions":[3.31464E-2,6.292618E0,-5.0558157E-2,5.0666666E0,7.161773E-1,5.4042177E0,2.101126E-1,-4.773856E-2,7.6838166E-1,3.5660662E-4,1.0691683E0,-3.3436116E-2,1.4735291E-2,7.357495E-2,-3.746146E-2,4.596389E-2,7.412746E-2,4.852469E-2,3.032481E-3],"split_indices":[4,2,0,3,1,2,2,0,1,2,1,0,0,0,0,0,0,0,0],"split_type":[0,0,0,0,0,0,0,0,0,0,0,0,0,0,0,0,0,0,0],"sum_hessian":[8.1028735E2,7.946403E2,1.56469965E1,7.8331805E2,1.1322299E1,7.793524E2,3.9656217E0,7.7641096E0,3.5581899E0,7.74957E2,4.395431E0,1.536222E0,2.4293997E0,1.4376781E0,2.1205118E0,7.2161775E0,7.677408E2,2.990993E0,1.4044378E0],"tree_param":{"num_deleted":"0","num_feature":"5","num_nodes":"19","size_leaf_vector":"1"}},{"base_weights":[-4.4290227E-1,-5.3309864E-1,7.195133E-1],"categories":[],"categories_nodes":[],"categories_segments":[],"categories_sizes":[],"default_left":[1,0,0],"id":77,"left_children":[1,-1,-1],"loss_changes":[2.7421005E1,0E0,0E0],"parents":[2147483647,0,0],"right_children":[2,-1,-1],"split_conditions":[1.5203362E0,-5.3309865E-2,7.195133E-2],"split_indices":[0,0,0],"split_type":[0,0,0],"sum_hessian":[2.5687833E2,2.3888379E2,1.7994549E1],"tree_param":{"num_deleted":"0","num_feature":"5","num_nodes":"3","size_leaf_vector":"1"}},{"base_weights":[-4.3758154E-1,-5.297852E-1,6.562845E-1,4.290774E-2,6.946922E-1],"categories":[],"categories_nodes":[],"categories_segments":[],"categories_sizes":[],"default_left":[1,0,1,0,0],"id":78,"left_children":[1,-1,3,-1,-1],"loss_changes":[2.4448185E1,0E0,4.1833496E-1,0E0,0E0],"parents":[2147483647,0,0,2,2],"right_children":[2,-1,4,-1,-1],"split_conditions":[2.7074904E0,-5.2978523E-2,3.7914556E-2,4.290774E-3,6.946922E-2],"split_indices":[1,0,3,0,0],"split_type":[0,0,0,0,0],"sum_hessian":[2.3795361E2,2.1993097E2,1.8022648E1,1.1867784E0,1.683587E1],"tree_param":{"num_deleted":"0","num_feature":"5","num_nodes":"5","size_leaf_vector":"1"}},{"base_weights":[-4.3886107E-1,-5.298179E-1,6.891014E-1],"categories":[],"categories_nodes":[],"categories_segments":[],"categories_sizes":[],"default_left":[1,0,0],"id":79,"left_children":[1,-1,-1],"loss_changes":[2.4843231E1,0E0,0E0],"parents":[2147483647,0,0],"right_children":[2,-1,-1],"split_conditions":[3.1695018E0,-5.298179E-2,6.8910144E-2],"split_indices":[4,0,0],"split_type":[0,0,0],"sum_hessian":[2.3758797E2,2.2034967E2,1.7238295E1],"tree_param":{"num_deleted":"0","num_feature":"5","num_nodes":"3","size_leaf_vector":"1"}},{"base_weights":[-4.780657E-1,-5.1824903E-1,5.625975E-1,1.0997285E-1,-5.29752E-1,6.091217E-1,1.946517E-1,3.3925563E-1,-3.0559584E-1,1.946517E-1,6.7823464E-1],"categories":[],"categories_nodes":[],"categories_segments":[],"categories_sizes":[],"default_left":[1,1,1,1,0,1,0,0,0,0,0],"id":80,"left_children":[1,3,5,7,-1,9,-1,-1,-1,-1,-1],"loss_changes":[1.0075756E1,1.6899605E0,3.8547754E-2,5.6943446E-1,0E0,8.7925196E-2,0E0,0E0,0E0,0E0,0E0],"parents":[2147483647,0,0,1,1,2,2,3,3,5,5],"right_children":[2,4,6,8,-1,10,-1,-1,-1,-1,-1],"split_conditions":[5.6568794E0,3.5660662E-4,2.83E-1,0E0,-5.2975204E-2,3.3165E1,1.9465169E-2,3.3925563E-2,-3.0559584E-2,1.9465169E-2,6.782346E-2],"split_indices":[3,2,2,0,0,3,0,0,0,0,0],"split_type":[0,0,0,0,0,0,0,0,0,0,0],"sum_hessian":[2.3297467E2,2.2479657E2,8.178105E0,3.8881817E0,2.2090839E2,6.678225E0,1.4998803E0,2.6240454E0,1.2641361E0,1.4998803E0,5.1783447E0],"tree_param":{"num_deleted":"0","num_feature":"5","num_nodes":"11","size_leaf_vector":"1"}},{"base_weights":[-3.5679352E-1,-5.252903E-1,6.254722E-1,-5.29647E-1,-1.8505882E-1,6.962456E-1,4.0124807E-1,1.9167201E-1,-3.7193778E-1,-4.205838E-1,5.5046934E-1,1.9049476E-1,6.823933E-1,-3.3591497E-1,5.261803E-1],"categories":[],"categories_nodes":[],"categories_segments":[],"categories_sizes":[],"default_left":[1,1,1,0,1,0,1,0,0,0,1,1,0,0,0],"id":81,"left_children":[1,3,5,-1,7,-1,9,-1,-1,-1,11,13,-1,-1,-1],"loss_changes":[4.223118E1,2.2311783E-1,3.1615162E-1,0E0,3.7234658E-1,0E0,1.6250547E0,0E0,0E0,0E0,3.4728575E-1,8.9819306E-1,0E0,0E0,0E0],"parents":[2147483647,0,0,1,1,2,2,4,4,6,6,10,10,11,11],"right_children":[2,4,6,-1,8,-1,10,-1,-1,-1,12,14,-1,-1,-1],"split_conditions":[5.4042177E0,3.923633E0,7.161773E-1,-5.29647E-2,4.1380644E0,6.9624566E-2,7.6838166E-1,1.9167202E-2,-3.719378E-2,-4.2058382E-2,1.1456141E0,6.5702534E0,6.823933E-2,-3.3591498E-2,5.2618034E-2],"split_indices":[2,2,1,0,2,0,1,0,0,0,1,2,0,0,0],"split_type":[0,0,0,0,0,0,0,0,0,0,0,0,0,0,0],"sum_hessian":[2.521749E2,2.1564809E2,3.652681E1,2.123719E2,3.276184E0,2.6163504E1,1.0363304E1,1.0777968E0,2.1983874E0,1.3130717E0,9.050232E0,3.0826712E0,5.9675612E0,1.2000748E0,1.8825964E0],"tree_param":{"num_deleted":"0","num_feature":"5","num_nodes":"15","size_leaf_vector":"1"}},{"base_weights":[6.6705513E-1,6.900327E-1,-5.0032157E-1,7.042404E-1,-2.788814E-1,7.083517E-1,-6.332082E-2,-4.7051248E-1,1.3555938E-1,7.099737E-1,3.533404E-1,-3.2545933E-1,1.4182816E-1,6.9135666E-1,-3.6571512E-1,4.305323E-1,7.121035E-1,1.18568845E-1,5.4078764E-1],"categories":[],"categories_nodes":[],"categories_segments":[],"categories_sizes":[],"default_left":[1,1,0,1,1,1,1,0,1,1,1,0,0,0,0,0,0,0,0],"id":82,"left_children":[1,3,-1,5,7,9,11,-1,13,15,17,-1,-1,-1,-1,-1,-1,-1,-1],"loss_changes":[2.1101044E1,1.064859E1,0E0,2.4071655E0,9.921272E-1,1.7791748E-1,3.1000334E-1,0E0,1.4988403E0,1.3400269E-1,1.7253596E-1,0E0,0E0,0E0,0E0,0E0,0E0,0E0,0E0],"parents":[2147483647,0,0,1,1,3,3,4,4,5,5,6,6,8,8,9,9,10,10],"right_children":[2,4,-1,6,8,10,12,-1,14,16,18,-1,-1,-1,-1,-1,-1,-1,-1],"split_conditions":[3.31464E-2,6.292618E0,-5.0032157E-2,5.0666666E0,7.161773E-1,5.4042177E0,2.101126E-1,-4.7051247E-2,7.6838166E-1,3.5660662E-4,5.9084854E0,-3.2545935E-2,1.4182816E-2,6.9135666E-2,-3.6571514E-2,4.3053232E-2,7.121035E-2,1.1856885E-2,5.4078765E-2],"split_indices":[4,2,0,3,1,2,2,0,1,2,2,0,0,0,0,0,0,0,0],"split_type":[0,0,0,0,0,0,0,0,0,0,0,0,0,0,0,0,0,0,0],"sum_hessian":[7.727922E2,7.582759E2,1.45162945E1,7.475868E2,1.0689095E1,7.4368054E2,3.9062212E0,7.216842E0,3.4722524E0,7.393029E2,4.3776655E0,1.4574475E0,2.4487736E0,1.4667588E0,2.0054934E0,7.1286473E0,7.3217426E2,2.668279E0,1.7093866E0],"tree_param":{"num_deleted":"0","num_feature":"5","num_nodes":"19","size_leaf_vector":"1"}},{"base_weights":[-4.3886107E-1,-5.298179E-1,6.891014E-1],"categories":[],"categories_nodes":[],"categories_segments":[],"categories_sizes":[],"default_left":[1,0,0],"id":83,"left_children":[1,-1,-1],"loss_changes":[2.4843231E1,0E0,0E0],"parents":[2147483647,0,0],"right_children":[2,-1,-1],"split_conditions":[1.5203362E0,-5.298179E-2,6.8910144E-2],"split_indices":[0,0,0],"split_type":[0,0,0],"sum_hessian":[2.3758797E2,2.2034967E2,1.7238295E1],"tree_param":{"num_deleted":"0","num_feature":"5","num_nodes":"3","size_leaf_vector":"1"}},{"base_weights":[-4.336544E-1,-5.267431E-1,6.2988365E-1,4.1882347E-2,6.676933E-1],"categories":[],"categories_nodes":[],"categories_segments":[],"categories_sizes":[],"default_left":[1,0,1,0,0],"id":84,"left_children":[1,-1,3,-1,-1],"loss_changes":[2.2190727E1,0E0,3.7722158E-1,0E0,0E0],"parents":[2147483647,0,0,2,2],"right_children":[2,-1,4,-1,-1],"split_conditions":[2.7074904E0,-5.2674312E-2,1.3246492E-1,4.188235E-3,6.676933E-2],"split_indices":[1,0,4,0,0],"split_type":[0,0,0,0,0],"sum_hessian":[2.1978983E2,2.025646E2,1.7225227E1,1.1680398E0,1.6057186E1],"tree_param":{"num_deleted":"0","num_feature":"5","num_nodes":"5","size_leaf_vector":"1"}},{"base_weights":[-4.3511924E-1,-5.267781E-1,6.62578E-1],"categories":[],"categories_nodes":[],"categories_segments":[],"categories_sizes":[],"default_left":[1,0,0],"id":85,"left_children":[1,-1,-1],"loss_changes":[2.252303E1,0E0,0E0],"parents":[2147483647,0,0],"right_children":[2,-1,-1],"split_conditions":[3.1695018E0,-5.267781E-2,6.62578E-2],"split_indices":[4,0,0],"split_type":[0,0,0],"sum_hessian":[2.1938751E2,2.0296024E2,1.6427286E1],"tree_param":{"num_deleted":"0","num_feature":"5","num_nodes":"3","size_leaf_vector":"1"}},{"base_weights":[-4.7303435E-1,-5.143527E-1,5.3312045E-1,1.09495185E-1,-5.267045E-1,5.791393E-1,1.8114592E-1,3.2731774E-1,-2.9919034E-1,1.8114592E-1,6.480438E-1,6.900264E-1,-3.173183E-1],"categories":[],"categories_nodes":[],"categories_segments":[],"categories_sizes":[],"default_left":[1,1,1,1,0,1,0,1,0,0,0,0,0],"id":86,"left_children":[1,3,5,7,-1,9,-1,11,-1,-1,-1,-1,-1],"loss_changes":[9.266666E0,1.662632E0,4.1248083E-2,5.316156E-1,0E0,8.896971E-2,0E0,1.0736662E0,0E0,0E0,0E0,0E0,0E0],"parents":[2147483647,0,0,1,1,2,2,3,3,5,5,7,7],"right_children":[2,4,6,8,-1,10,-1,12,-1,-1,-1,-1,-1],"split_conditions":[5.6568794E0,3.5660662E-4,2.83E-1,0E0,-5.267045E-2,3.3165E1,1.8114593E-2,4.970278E-2,-2.9919034E-2,1.8114593E-2,6.480438E-2,6.900264E-2,-3.173183E-2],"split_indices":[3,2,2,0,0,3,0,3,0,0,0,0,0],"split_type":[0,0,0,0,0,0,0,0,0,0,0,0,0],"sum_hessian":[2.1530714E2,2.0728372E2,8.023431E0,3.871723E0,2.03412E2,6.524929E0,1.4985018E0,2.6554883E0,1.2162346E0,1.4985018E0,5.0264273E0,1.6542829E0,1.0012054E0],"tree_param":{"num_deleted":"0","num_feature":"5","num_nodes":"13","size_leaf_vector":"1"}},{"base_weights":[-3.5186213E-1,-5.218668E-1,5.979064E-1,-5.2659535E-1,-1.6924787E-1,6.671243E-1,3.8083604E-1,2.0350425E-1,-3.6293587E-1,1.813766E-1,6.793366E-1,-4.0710235E-1,5.2560925E-1,1.767103E-1,6.541516E-1,-3.296405E-1,5.0229716E-1],"categories":[],"categories_nodes":[],"categories_segments":[],"categories_sizes":[],"default_left":[1,1,1,0,1,1,1,0,0,0,0,0,1,1,0,0,0],"id":87,"left_children":[1,3,5,-1,7,9,11,-1,-1,-1,-1,-1,13,15,-1,-1,-1],"loss_changes":[3.8222145E1,2.4380875E-1,2.8851795E-1,0E0,3.7101054E-1,3.131962E-2,1.4757588E0,0E0,0E0,0E0,0E0,0E0,3.230574E-1,8.2558674E-1,0E0,0E0,0E0],"parents":[2147483647,0,0,1,1,2,2,4,4,5,5,6,6,12,12,13,13],"right_children":[2,4,6,-1,8,10,12,-1,-1,-1,-1,-1,14,16,-1,-1,-1],"split_conditions":[5.4042177E0,3.923633E0,7.161773E-1,-5.2659538E-2,9.850613E-1,6.08259E0,7.6838166E-1,2.0350425E-2,-3.629359E-2,1.8137662E-2,6.7933664E-2,-4.0710237E-2,1.1456141E0,6.5702534E0,6.541517E-2,-3.296405E-2,5.0229717E-2],"split_indices":[2,2,1,0,1,2,1,0,0,0,0,0,1,2,0,0,0],"split_type":[0,0,0,0,0,0,0,0,0,0,0,0,0,0,0,0,0],"sum_hessian":[2.3378833E2,1.9867657E2,3.5111755E1,1.9556076E2,3.1158085E0,2.5050516E1,1.0061239E1,1.048087E0,2.0677216E0,1.00312E0,2.4047396E1,1.280427E0,8.780812E0,3.0034244E0,5.777388E0,1.1705468E0,1.8328778E0],"tree_param":{"num_deleted":"0","num_feature":"5","num_nodes":"17","size_leaf_vector":"1"}},{"base_weights":[6.434043E-1,6.6533595E-1,-4.9512354E-1,6.78972E-1,-2.692637E-1,6.83064E-1,-5.775747E-2,-4.6361956E-1,1.3386758E-1,6.847466E-1,3.360368E-1,-3.1659064E-1,1.3674022E-1,6.5181214E-1,-3.5685316E-1,4.038302E-1,6.870061E-1,4.4183263E-1,2.0620942E-2],"categories":[],"categories_nodes":[],"categories_segments":[],"categories_sizes":[],"default_left":[1,1,0,1,1,1,1,0,1,1,1,0,0,0,0,0,0,0,0],"id":88,"left_children":[1,3,-1,5,7,9,11,-1,13,15,17,-1,-1,-1,-1,-1,-1,-1,-1],"loss_changes":[1.8665466E1,9.369873E0,0E0,2.1822815E0,9.303919E-1,1.8267822E-1,2.873602E-1,0E0,1.3460975E0,1.6851807E-1,1.7024517E-1,0E0,0E0,0E0,0E0,0E0,0E0,0E0,0E0],"parents":[2147483647,0,0,1,1,3,3,4,4,5,5,6,6,8,8,9,9,10,10],"right_children":[2,4,-1,6,8,10,12,-1,14,16,18,-1,-1,-1,-1,-1,-1,-1,-1],"split_conditions":[3.31464E-2,6.292618E0,-4.9512353E-2,5.0666666E0,7.161773E-1,5.4042177E0,2.101126E-1,-4.6361957E-2,7.6838166E-1,3.5660662E-4,1.0691683E0,-3.1659063E-2,1.3674023E-2,6.518122E-2,-3.5685316E-2,4.0383022E-2,6.870061E-2,4.4183265E-2,2.0620942E-3],"split_indices":[4,2,0,3,1,2,2,0,1,2,1,0,0,0,0,0,0,0,0],"split_type":[0,0,0,0,0,0,0,0,0,0,0,0,0,0,0,0,0,0,0],"sum_hessian":[7.3332825E2,7.198768E2,1.3451501E1,7.097942E2,1.0082552E1,7.0594604E2,3.8481846E0,6.701573E0,3.3809783E0,7.0157117E2,4.374825E0,1.3817062E0,2.4664783E0,1.4851556E0,1.8958229E0,7.0320096E0,6.945392E2,2.9758728E0,1.3989521E0],"tree_param":{"num_deleted":"0","num_feature":"5","num_nodes":"19","size_leaf_vector":"1"}},{"base_weights":[-4.3511924E-1,-5.267781E-1,6.62578E-1],"categories":[],"categories_nodes":[],"categories_segments":[],"categories_sizes":[],"default_left":[1,0,0],"id":89,"left_children":[1,-1,-1],"loss_changes":[2.252303E1,0E0,0E0],"parents":[2147483647,0,0],"right_children":[2,-1,-1],"split_conditions":[1.5203362E0,-5.267781E-2,6.62578E-2],"split_indices":[0,0,0],"split_type":[0,0,0],"sum_hessian":[2.1938751E2,2.0296024E2,1.6427286E1],"tree_param":{"num_deleted":"0","num_feature":"5","num_nodes":"3","size_leaf_vector":"1"}},{"base_weights":[-4.299834E-1,-5.239221E-1,6.064797E-1,3.4490187E-2,6.446928E-1],"categories":[],"categories_nodes":[],"categories_segments":[],"categories_sizes":[],"default_left":[1,0,1,0,0],"id":90,"left_children":[1,-1,3,-1,-1],"loss_changes":[2.0151497E1,0E0,3.5790873E-1,0E0,0E0],"parents":[2147483647,0,0,2,2],"right_children":[2,-1,4,-1,-1],"split_conditions":[2.7074904E0,-5.239221E-2,3.7914556E-2,3.4490188E-3,6.446928E-2],"split_indices":[1,0,3,0,0],"split_type":[0,0,0,0,0],"sum_hessian":[2.0270724E2,1.8631528E2,1.6391964E1,1.1456691E0,1.5246295E1],"tree_param":{"num_deleted":"0","num_feature":"5","num_nodes":"5","size_leaf_vector":"1"}},{"base_weights":[-4.316462E-1,-5.2395934E-1,6.392518E-1],"categories":[],"categories_nodes":[],"categories_segments":[],"categories_sizes":[],"default_left":[1,0,0],"id":91,"left_children":[1,-1,-1],"loss_changes":[2.0429932E1,0E0,0E0],"parents":[2147483647,0,0],"right_children":[2,-1,-1],"split_conditions":[3.1695018E0,-5.2395936E-2,6.3925184E-2],"split_indices":[4,0,0],"split_type":[0,0,0],"sum_hessian":[2.0227124E2,1.8668906E2,1.5582174E1],"tree_param":{"num_deleted":"0","num_feature":"5","num_nodes":"3","size_leaf_vector":"1"}},{"base_weights":[-4.6812814E-1,-5.106208E-1,5.062089E-1,1.09665856E-1,-5.2387834E-1,5.52006E-1,1.68454E-1,3.1777206E-1,-2.9291394E-1,1.68454E-1,6.2119335E-1],"categories":[],"categories_nodes":[],"categories_segments":[],"categories_sizes":[],"default_left":[1,1,1,1,0,1,0,0,0,0,0],"id":92,"left_children":[1,3,5,7,-1,9,-1,-1,-1,-1,-1],"loss_changes":[8.527901E0,1.6354027E0,4.3889284E-2,4.9876282E-1,0E0,9.0487E-2,0E0,0E0,0E0,0E0,0E0],"parents":[2147483647,0,0,1,1,2,2,3,3,5,5],"right_children":[2,4,6,8,-1,10,-1,-1,-1,-1,-1],"split_conditions":[5.6568794E0,3.5660662E-4,2.83E-1,0E0,-5.2387834E-2,3.3165E1,1.6845401E-2,3.1777207E-2,-2.9291395E-2,1.6845401E-2,6.2119335E-2],"split_indices":[3,2,2,0,0,3,0,0,0,0,0],"split_type":[0,0,0,0,0,0,0,0,0,0,0],"sum_hessian":[1.9873381E2,1.9088489E2,7.8489165E0,3.8422787E0,1.8704262E2,6.353138E0,1.4957783E0,2.671801E0,1.1704776E0,1.4957783E0,4.8573594E0],"tree_param":{"num_deleted":"0","num_feature":"5","num_nodes":"11","size_leaf_vector":"1"}},{"base_weights":[-3.471701E-1,-5.186245E-1,5.74531E-1,-5.237643E-1,-1.5324856E-1,6.4354074E-1,3.6143965E-1,2.1777213E-1,-3.5440984E-1,1.8023771E-1,6.5552497E-1,-3.9416283E-1,5.022059E-1,1.629087E-1,6.283293E-1,-3.243837E-1,4.803676E-1],"categories":[],"categories_nodes":[],"categories_segments":[],"categories_sizes":[],"default_left":[1,1,1,0,1,1,1,0,0,0,0,0,1,1,0,0,0],"id":93,"left_children":[1,3,5,-1,7,9,11,-1,-1,-1,-1,-1,13,15,-1,-1,-1],"loss_changes":[3.4648434E1,2.649002E-1,2.757206E-1,0E0,3.7298164E-1,1.9713402E-2,1.3400059E0,0E0,0E0,0E0,0E0,0E0,3.0378437E-1,7.6252747E-1,0E0,0E0,0E0],"parents":[2147483647,0,0,1,1,2,2,4,4,5,5,6,6,12,12,13,13],"right_children":[2,4,6,-1,8,10,12,-1,-1,-1,-1,-1,14,16,-1,-1,-1],"split_conditions":[5.4042177E0,3.923633E0,7.161773E-1,-5.237643E-2,4.1380644E0,6.08259E0,7.6838166E-1,2.1777213E-2,-3.5440985E-2,1.8023772E-2,6.5552495E-2,-3.9416283E-2,1.1456141E0,6.5702534E0,6.283293E-2,-3.243837E-2,4.803676E-2],"split_indices":[2,2,1,0,2,2,1,0,0,0,0,0,1,2,0,0,0],"split_type":[0,0,0,0,0,0,0,0,0,0,0,0,0,0,0,0,0],"sum_hessian":[2.1636717E2,1.8280011E2,3.3567066E1,1.798368E2,2.9633026E0,2.3829763E1,9.737304E0,1.0127738E0,1.9505287E0,1.0052929E0,2.282447E1,1.2464592E0,8.490845E0,2.9219294E0,5.568915E0,1.14404E0,1.7778895E0],"tree_param":{"num_deleted":"0","num_feature":"5","num_nodes":"17","size_leaf_vector":"1"}},{"base_weights":[6.227735E-1,6.438309E-1,-4.8996246E-1,6.569949E-1,-2.5984794E-1,6.610999E-1,-5.2353334E-2,-4.5661128E-1,1.3199234E-1,6.6286963E-1,3.1717533E-1,-3.0777282E-1,1.3203052E-1,6.164122E-1,-3.4803468E-1,3.7925363E-1,6.652796E-1,9.872184E-2,4.922657E-1],"categories":[],"categories_nodes":[],"categories_segments":[],"categories_sizes":[],"default_left":[1,1,0,1,1,1,1,0,1,1,1,0,0,0,0,0,0,0,0],"id":94,"left_children":[1,3,-1,5,7,9,11,-1,13,15,17,-1,-1,-1,-1,-1,-1,-1,-1],"loss_changes":[1.6570465E1,8.275269E0,0E0,1.9907227E0,8.6969197E-1,1.963501E-1,2.6630813E-1,0E0,1.2109995E0,2.0126343E-1,1.5554649E-1,0E0,0E0,0E0,0E0,0E0,0E0,0E0,0E0],"parents":[2147483647,0,0,1,1,3,3,4,4,5,5,6,6,8,8,9,9,10,10],"right_children":[2,4,-1,6,8,10,12,-1,14,16,18,-1,-1,-1,-1,-1,-1,-1,-1],"split_conditions":[3.31464E-2,6.292618E0,-4.8996247E-2,5.0666666E0,7.161773E-1,5.4042177E0,2.101126E-1,-4.566113E-2,7.6838166E-1,3.5660662E-4,5.9084854E0,-3.0777281E-2,1.3203052E-2,6.1641224E-2,-3.480347E-2,3.7925363E-2,6.652796E-2,9.872184E-3,4.922657E-2],"split_indices":[4,2,0,3,1,2,2,0,1,2,2,0,0,0,0,0,0,0,0],"split_type":[0,0,0,0,0,0,0,0,0,0,0,0,0,0,0,0,0,0,0],"sum_hessian":[6.9273157E2,6.8027936E2,1.2452164E1,6.70781E2,9.498379E0,6.6698914E2,3.791839E0,6.2131395E0,3.2852397E0,6.626519E2,4.3372197E0,1.3091416E0,2.4826972E0,1.4937251E0,1.7915144E0,6.917739E0,6.557342E2,2.6254191E0,1.7118003E0],"tree_param":{"num_deleted":"0","num_feature":"5","num_nodes":"19","size_leaf_vector":"1"}},{"base_weights":[-4.316462E-1,-5.2395934E-1,6.392518E-1],"categories":[],"categories_nodes":[],"categories_segments":[],"categories_sizes":[],"default_left":[1,0,0],"id":95,"left_children":[1,-1,-1],"loss_changes":[2.0429932E1,0E0,0E0],"parents":[2147483647,0,0],"right_children":[2,-1,-1],"split_conditions":[1.5203362E0,-5.2395936E-2,6.3925184E-2],"split_indices":[0,0,0],"split_type":[0,0,0],"sum_hessian":[2.0227124E2,1.8668906E2,1.5582174E1],"tree_param":{"num_deleted":"0","num_feature":"5","num_nodes":"3","size_leaf_vector":"1"}},{"base_weights":[-4.2654672E-1,-5.213024E-1,5.8553785E-1,3.390972E-2,6.23561E-1],"categories":[],"categories_nodes":[],"categories_segments":[],"categories_sizes":[],"default_left":[1,0,1,0,0],"id":96,"left_children":[1,-1,3,-1,-1],"loss_changes":[1.8305973E1,0E0,3.2577515E-1,0E0,0E0],"parents":[2147483647,0,0,2,2],"right_children":[2,-1,4,-1,-1],"split_conditions":[2.7074904E0,-5.213024E-2,1.3246492E-1,3.390972E-3,6.2356103E-2],"split_indices":[1,0,4,0,0],"split_type":[0,0,0,0,0],"sum_hessian":[1.8670169E2,1.7116173E2,1.5539966E1,1.1240737E0,1.4415893E1],"tree_param":{"num_deleted":"0","num_feature":"5","num_nodes":"5","size_leaf_vector":"1"}},{"base_weights":[-4.2841846E-1,-5.213419E-1,6.1857176E-1],"categories":[],"categories_nodes":[],"categories_segments":[],"categories_sizes":[],"default_left":[1,0,0],"id":97,"left_children":[1,-1,-1],"loss_changes":[1.8538574E1,0E0,0E0],"parents":[2147483647,0,0],"right_children":[2,-1,-1],"split_conditions":[3.1695018E0,-5.2134193E-2,6.1857175E-2],"split_indices":[4,0,0],"split_type":[0,0,0],"sum_hessian":[1.8623505E2,1.7151468E2,1.4720377E1],"tree_param":{"num_deleted":"0","num_feature":"5","num_nodes":"3","size_leaf_vector":"1"}},{"base_weights":[-4.6327573E-1,-5.069776E-1,4.8145255E-1,1.09212585E-1,-5.212537E-1,5.272482E-1,1.565203E-1,3.0737877E-1,-2.867748E-1,1.565203E-1,5.9711885E-1],"categories":[],"categories_nodes":[],"categories_segments":[],"categories_sizes":[],"default_left":[1,1,1,1,0,1,0,0,0,0,0],"id":98,"left_children":[1,3,5,7,-1,9,-1,-1,-1,-1,-1],"loss_changes":[7.851673E0,1.6104698E0,4.6337843E-2,4.6683055E-1,0E0,9.220874E-2,0E0,0E0,0E0,0E0,0E0],"parents":[2147483647,0,0,1,1,2,2,3,3,5,5],"right_children":[2,4,6,8,-1,10,-1,-1,-1,-1,-1],"split_conditions":[5.6568794E0,3.5660662E-4,2.83E-1,0E0,-5.2125372E-2,3.3165E1,1.565203E-2,3.0737877E-2,-2.8677482E-2,1.565203E-2,5.9711885E-2],"split_indices":[3,2,2,0,0,3,0,0,0,0,0],"split_type":[0,0,0,0,0,0,0,0,0,0,0],"sum_hessian":[1.8326381E2,1.7560396E2,7.6598425E0,3.825739E0,1.7177823E2,6.1679034E0,1.4919391E0,2.6988864E0,1.1268525E0,1.4919391E0,4.6759644E0],"tree_param":{"num_deleted":"0","num_feature":"5","num_nodes":"11","size_leaf_vector":"1"}},{"base_weights":[-3.4265736E-1,-5.155397E-1,5.5330616E-1,-5.2113414E-1,-1.3706978E-1,6.218743E-1,3.444917E-1,1.91476E-1,-3.383891E-1,1.7229907E-1,6.345653E-1,-3.8174516E-1,4.8183626E-1,1.5082604E-1,6.0575306E-1,-3.1817946E-1,4.601179E-1],"categories":[],"categories_nodes":[],"categories_segments":[],"categories_sizes":[],"default_left":[1,1,1,0,1,1,1,0,0,0,0,0,1,1,0,0,0],"id":99,"left_children":[1,3,5,-1,7,9,11,-1,-1,-1,-1,-1,13,15,-1,-1,-1],"loss_changes":[3.1416565E1,2.8637695E-1,2.5812817E-1,0E0,3.173575E-1,2.5278091E-2,1.2209918E0,0E0,0E0,0E0,0E0,0E0,2.8540802E-1,7.0249766E-1,0E0,0E0,0E0],"parents":[2147483647,0,0,1,1,2,2,4,4,5,5,6,6,12,12,13,13],"right_children":[2,4,6,-1,8,10,12,-1,-1,-1,-1,-1,14,16,-1,-1,-1],"split_conditions":[5.4042177E0,3.923633E0,7.161773E-1,-5.2113414E-2,9.990385E-1,6.08259E0,7.6838166E-1,1.9147601E-2,-3.383891E-2,1.7229907E-2,6.345653E-2,-3.8174517E-2,1.1456141E0,6.5702534E0,6.0575306E-2,-3.1817947E-2,4.601179E-2],"split_indices":[2,2,1,0,1,2,1,0,0,0,0,0,1,2,0,0,0],"split_type":[0,0,0,0,0,0,0,0,0,0,0,0,0,0,0,0,0],"sum_hessian":[1.9998167E2,1.679912E2,3.1990465E1,1.6517273E2,2.8184779E0,2.2593388E1,9.3970785E0,1.0894423E0,1.7290357E0,1.0204581E0,2.157293E1,1.2115095E0,8.18557E0,2.8335807E0,5.351989E0,1.114633E0,1.7189476E0],"tree_param":{"num_deleted":"0","num_feature":"5","num_nodes":"17","size_leaf_vector":"1"}},{"base_weights":[6.046483E-1,6.2496936E-1,-4.8480943E-1,6.3774884E-1,-2.5074595E-1,6.418958E-1,-4.713619E-2,-4.4952613E-1,1.29959E-1,3.5636058E-1,6.444464E-1,-2.9902297E-1,1.2764765E-1,5.845634E-1,-3.3927593E-1,9.244903E-2,5.4627967E-1,6.4636785E-1,2.9988182E-1],"categories":[],"categories_nodes":[],"categories_segments":[],"categories_sizes":[],"default_left":[1,1,0,1,1,1,1,0,1,1,1,0,0,0,0,0,0,0,0],"id":100,"left_children":[1,3,-1,5,7,9,11,-1,13,15,17,-1,-1,-1,-1,-1,-1,-1,-1],"loss_changes":[1.4755753E1,7.3368225E0,0E0,1.826294E0,8.107822E-1,2.2817993E-1,2.467389E-1,0E0,1.0912832E0,3.4057564E-1,2.1786499E-1,0E0,0E0,0E0,0E0,0E0,0E0,0E0,0E0],"parents":[2147483647,0,0,1,1,3,3,4,4,5,5,6,6,8,8,9,9,10,10],"right_children":[2,4,-1,6,8,10,12,-1,14,16,18,-1,-1,-1,-1,-1,-1,-1,-1],"split_conditions":[3.31464E-2,6.292618E0,-4.8480943E-2,5.0666666E0,7.161773E-1,3.5660662E-4,2.101126E-1,-4.4952612E-2,7.6838166E-1,0E0,5.4042177E0,-2.9902298E-2,1.2764766E-2,5.845634E-2,-3.3927593E-2,9.244903E-3,5.4627966E-2,6.463679E-2,2.9988183E-2],"split_indices":[4,2,0,3,1,2,2,0,1,0,2,0,0,0,0,0,0,0,0],"split_type":[0,0,0,0,0,0,0,0,0,0,0,0,0,0,0,0,0,0,0],"sum_hessian":[6.5181964E2,6.4030273E2,1.1516886E1,6.3136096E2,8.941808E0,6.276235E2,3.7374406E0,5.755746E0,3.1860616E0,6.8025584E0,6.208209E2,1.2398443E0,2.4975963E0,1.4934231E0,1.6926385E0,3.4689233E0,3.3336353E0,6.1650696E2,4.313952E0],"tree_param":{"num_deleted":"0","num_feature":"5","num_nodes":"19","size_leaf_vector":"1"}},{"base_weights":[-4.2841846E-1,-5.213419E-1,6.1857176E-1],"categories":[],"categories_nodes":[],"categories_segments":[],"categories_sizes":[],"default_left":[1,0,0],"id":101,"left_children":[1,-1,-1],"loss_changes":[1.8538574E1,0E0,0E0],"parents":[2147483647,0,0],"right_children":[2,-1,-1],"split_conditions":[1.5203362E0,-5.2134193E-2,6.1857175E-2],"split_indices":[0,0,0],"split_type":[0,0,0],"sum_hessian":[1.8623505E2,1.7151468E2,1.4720377E1],"tree_param":{"num_deleted":"0","num_feature":"5","num_nodes":"3","size_leaf_vector":"1"}},{"base_weights":[-4.2331448E-1,-5.188648E-1,5.6665885E-1,2.7011082E-2,6.0539305E-1],"categories":[],"categories_nodes":[],"categories_segments":[],"categories_sizes":[],"default_left":[1,0,1,0,0],"id":102,"left_children":[1,-1,3,-1,-1],"loss_changes":[1.6634377E1,0E0,3.114748E-1,0E0,0E0],"parents":[2147483647,0,0,2,2],"right_children":[2,-1,4,-1,-1],"split_conditions":[2.7074904E0,-5.188648E-2,3.7914556E-2,2.701108E-3,6.0539305E-2],"split_indices":[1,0,3,0,0],"split_type":[0,0,0,0,0],"sum_hessian":[1.7174513E2,1.5706172E2,1.4683415E1,1.0970169E0,1.3586398E1],"tree_param":{"num_deleted":"0","num_feature":"5","num_nodes":"5","size_leaf_vector":"1"}},{"base_weights":[-4.2540762E-1,-5.1890653E-1,6.0009253E-1],"categories":[],"categories_nodes":[],"categories_segments":[],"categories_sizes":[],"default_left":[1,0,0],"id":103,"left_children":[1,-1,-1],"loss_changes":[1.6827389E1,0E0,0E0],"parents":[2147483647,0,0],"right_children":[2,-1,-1],"split_conditions":[3.1695018E0,-5.1890653E-2,6.0009252E-2],"split_indices":[4,0,0],"split_type":[0,0,0],"sum_hessian":[1.7125127E2,1.5739494E2,1.3856329E1],"tree_param":{"num_deleted":"0","num_feature":"5","num_nodes":"3","size_leaf_vector":"1"}},{"base_weights":[-4.5854512E-1,-5.035002E-1,4.5851994E-1,1.04850076E-1,-5.1881146E-1,5.044831E-1,1.4529528E-1,3.0162376E-1,-3.199514E-1,1.4529528E-1,5.753646E-1,6.308173E-1,-2.787776E-1],"categories":[],"categories_nodes":[],"categories_segments":[],"categories_sizes":[],"default_left":[1,1,1,1,0,1,0,1,0,0,0,0,0],"id":104,"left_children":[1,3,5,7,-1,9,-1,11,-1,-1,-1,-1,-1],"loss_changes":[7.2335243E0,1.5670624E0,4.850948E-2,4.9930874E-1,0E0,9.394848E-2,0E0,9.034415E-1,0E0,0E0,0E0,0E0,0E0],"parents":[2147483647,0,0,1,1,2,2,3,3,5,5,7,7],"right_children":[2,4,6,8,-1,10,-1,12,-1,-1,-1,-1,-1],"split_conditions":[5.6568794E0,3.5660662E-4,2.83E-1,4.970278E-2,-5.1881146E-2,3.3165E1,1.4529528E-2,0E0,-3.199514E-2,1.4529528E-2,5.753646E-2,6.3081734E-2,-2.7877761E-2],"split_indices":[3,2,2,3,0,3,0,0,0,0,0,0,0],"split_type":[0,0,0,0,0,0,0,0,0,0,0,0,0],"sum_hessian":[1.6885742E2,1.6139664E2,7.460791E0,3.818818E0,1.5757782E2,5.9736023E0,1.487189E0,2.808055E0,1.0107632E0,1.487189E0,4.486413E0,1.7363586E0,1.0716963E0],"tree_param":{"num_deleted":"0","num_feature":"5","num_nodes":"13","size_leaf_vector":"1"}},{"base_weights":[-3.3825943E-1,-5.1258904E-1,5.344204E-1,-5.1868546E-1,-1.2105278E-1,6.0304224E-1,3.2876778E-1,1.9972694E-1,-3.2838E-1,1.6930152E-1,6.1598164E-1,-3.698269E-1,4.6296233E-1,1.3851675E-1,5.857007E-1,-3.1293273E-1,4.4131944E-1],"categories":[],"categories_nodes":[],"categories_segments":[],"categories_sizes":[],"default_left":[1,1,1,0,1,1,1,0,0,0,0,0,1,1,0,0,0],"id":105,"left_children":[1,3,5,-1,7,9,11,-1,-1,-1,-1,-1,13,15,-1,-1,-1],"loss_changes":[2.8511616E1,3.0770493E-1,2.4478245E-1,0E0,3.1060755E-1,2.1098137E-2,1.1136912E0,0E0,0E0,0E0,0E0,0E0,2.7238703E-1,6.5022814E-1,0E0,0E0,0E0],"parents":[2147483647,0,0,1,1,2,2,4,4,5,5,6,6,12,12,13,13],"right_children":[2,4,6,-1,8,10,12,-1,-1,-1,-1,-1,14,16,-1,-1,-1],"split_conditions":[5.4042177E0,3.923633E0,7.161773E-1,-5.1868547E-2,9.990385E-1,6.08259E0,7.6838166E-1,1.9972695E-2,-3.2837998E-2,1.6930154E-2,6.1598163E-2,-3.6982693E-2,1.1456141E0,6.5702534E0,5.857007E-2,-3.1293273E-2,4.4131946E-2],"split_indices":[2,2,1,0,1,2,1,0,0,0,0,0,1,2,0,0,0],"split_type":[0,0,0,0,0,0,0,0,0,0,0,0,0,0,0,0,0],"sum_hessian":[1.8461064E2,1.5421645E2,3.03942E1,1.5153227E2,2.6841774E0,2.1340872E1,9.053328E0,1.068161E0,1.6160163E0,1.026192E0,2.031468E1,1.1758977E0,7.8774304E0,2.746338E0,5.1310925E0,1.0891165E0,1.6572213E0],"tree_param":{"num_deleted":"0","num_feature":"5","num_nodes":"17","size_leaf_vector":"1"}},{"base_weights":[5.886584E-1,6.083599E-1,-4.7964084E-1,6.2082905E-1,-2.4194437E-1,6.2504554E-1,-4.2129245E-2,-4.4234324E-1,1.2780498E-1,3.3805168E-1,6.2774473E-1,-2.903577E-1,1.23546764E-1,5.557652E-1,-3.305841E-1,8.642077E-2,5.254507E-1,6.298257E-1,2.8126752E-1],"categories":[],"categories_nodes":[],"categories_segments":[],"categories_sizes":[],"default_left":[1,1,0,1,1,1,1,0,1,1,1,0,0,0,0,0,0,0,0],"id":106,"left_children":[1,3,-1,5,7,9,11,-1,13,15,17,-1,-1,-1,-1,-1,-1,-1,-1],"loss_changes":[1.3175888E1,6.5278473E0,0E0,1.6842346E0,7.5400597E-1,2.4440002E-1,2.2855322E-1,0E0,9.849623E-1,3.157422E-1,2.4301147E-1,0E0,0E0,0E0,0E0,0E0,0E0,0E0,0E0],"parents":[2147483647,0,0,1,1,3,3,4,4,5,5,6,6,8,8,9,9,10,10],"right_children":[2,4,-1,6,8,10,12,-1,14,16,18,-1,-1,-1,-1,-1,-1,-1,-1],"split_conditions":[3.31464E-2,6.292618E0,-4.7964085E-2,5.0666666E0,7.161773E-1,3.5660662E-4,2.101126E-1,-4.4234324E-2,7.6838166E-1,0E0,5.4042177E0,-2.9035771E-2,1.2354677E-2,5.5576522E-2,-3.3058412E-2,8.6420765E-3,5.254507E-2,6.2982574E-2,2.8126752E-2],"split_indices":[4,2,0,3,1,2,2,0,1,0,2,0,0,0,0,0,0,0,0],"split_type":[0,0,0,0,0,0,0,0,0,0,0,0,0,0,0,0,0,0,0],"sum_hessian":[6.1115704E2,6.00513E2,1.064407E1,5.921001E2,8.412918E0,5.884149E2,3.685182E0,5.328574E0,3.0843437E0,6.6587663E0,5.817561E2,1.1738569E0,2.5113254E0,1.4852533E0,1.5990903E0,3.4659734E0,3.192793E0,5.7747003E2,4.2861266E0],"tree_param":{"num_deleted":"0","num_feature":"5","num_nodes":"19","size_leaf_vector":"1"}},{"base_weights":[-4.2540762E-1,-5.1890653E-1,6.0009253E-1],"categories":[],"categories_nodes":[],"categories_segments":[],"categories_sizes":[],"default_left":[1,0,0],"id":107,"left_children":[1,-1,-1],"loss_changes":[1.6827389E1,0E0,0E0],"parents":[2147483647,0,0],"right_children":[2,-1,-1],"split_conditions":[1.5203362E0,-5.1890653E-2,6.0009252E-2],"split_indices":[0,0,0],"split_type":[0,0,0],"sum_hessian":[1.7125127E2,1.5739494E2,1.3856329E1],"tree_param":{"num_deleted":"0","num_feature":"5","num_nodes":"3","size_leaf_vector":"1"}},{"base_weights":[-4.2026648E-1,-5.165914E-1,5.4948676E-1,2.677309E-2,5.883143E-1],"categories":[],"categories_nodes":[],"categories_segments":[],"categories_sizes":[],"default_left":[1,0,1,0,0],"id":108,"left_children":[1,-1,3,-1,-1],"loss_changes":[1.5118561E1,0E0,2.853117E-1,0E0,0E0],"parents":[2147483647,0,0,2,2],"right_children":[2,-1,4,-1,-1],"split_conditions":[2.7074904E0,-5.1659144E-2,1.3246492E-1,2.677309E-3,5.883143E-2],"split_indices":[1,0,4,0,0],"split_type":[0,0,0,0,0],"sum_hessian":[1.5781038E2,1.4397658E2,1.38338E1,1.0733552E0,1.2760445E1],"tree_param":{"num_deleted":"0","num_feature":"5","num_nodes":"5","size_leaf_vector":"1"}},{"base_weights":[-4.2259136E-1,-5.1663524E-1,5.834496E-1],"categories":[],"categories_nodes":[],"categories_segments":[],"categories_sizes":[],"default_left":[1,0,0],"id":109,"left_children":[1,-1,-1],"loss_changes":[1.52778225E1,0E0,0E0],"parents":[2147483647,0,0],"right_children":[2,-1,-1],"split_conditions":[3.1695018E0,-5.1663525E-2,5.834496E-2],"split_indices":[4,0,0],"split_type":[0,0,0],"sum_hessian":[1.5729274E2,1.44291E2,1.3001737E1],"tree_param":{"num_deleted":"0","num_feature":"5","num_nodes":"3","size_leaf_vector":"1"}},{"base_weights":[-4.5388147E-1,-5.0014305E-1,4.3714273E-1,1.01006895E-1,-5.1653343E-1,4.834002E-1,1.347347E-1,2.730739E-1,-2.7089605E-1,1.347347E-1,5.555597E-1],"categories":[],"categories_nodes":[],"categories_segments":[],"categories_sizes":[],"default_left":[1,1,1,1,0,1,0,0,0,0,0],"id":110,"left_children":[1,3,5,7,-1,9,-1,-1,-1,-1,-1],"loss_changes":[6.6676865E0,1.522232E0,5.0355077E-2,3.8090473E-1,0E0,9.5576644E-2,0E0,0E0,0E0,0E0,0E0],"parents":[2147483647,0,0,1,1,2,2,3,3,5,5],"right_children":[2,4,6,8,-1,10,-1,-1,-1,-1,-1],"split_conditions":[5.6568794E0,3.5660662E-4,2.83E-1,0E0,-5.1653344E-2,3.3165E1,1.3473471E-2,2.7307391E-2,-2.7089605E-2,1.3473471E-2,5.555597E-2],"split_indices":[3,2,2,0,0,3,0,0,0,0,0],"split_type":[0,0,0,0,0,0,0,0,0,0,0],"sum_hessian":[1.5545367E2,1.4819798E2,7.2556863E0,3.7963643E0,1.4440163E2,5.7739744E0,1.4817117E0,2.7771902E0,1.0191741E0,1.4817117E0,4.292263E0],"tree_param":{"num_deleted":"0","num_feature":"5","num_nodes":"11","size_leaf_vector":"1"}},{"base_weights":[-3.3397755E-1,-5.097502E-1,5.1721466E-1,-5.163999E-1,-1.0498178E-1,5.860998E-1,3.1417325E-1,2.0791996E-1,-3.1839454E-1,1.6639547E-1,5.9938675E-1,-3.583849E-1,4.4551632E-1,1.2682393E-1,5.674208E-1,-3.0777758E-1,4.237809E-1],"categories":[],"categories_nodes":[],"categories_segments":[],"categories_sizes":[],"default_left":[1,1,1,0,1,1,1,0,0,0,0,0,1,1,0,0,0],"id":111,"left_children":[1,3,5,-1,7,9,11,-1,-1,-1,-1,-1,13,15,-1,-1,-1],"loss_changes":[2.5883553E1,